<?xml version="1.0"?>
<opencv_storage>
<my_svm type_id="opencv-ml-svm">
  <svm_type>C_SVC</svm_type>
  <kernel><type>LINEAR</type></kernel>
  <C>5.0000000000000000e-001</C>
  <term_criteria><epsilon>2.2204460492503131e-016</epsilon>
    <iterations>20000</iterations></term_criteria>
  <var_all>1296</var_all>
  <var_count>1296</var_count>
  <class_count>10</class_count>
  <class_labels type_id="opencv-matrix">
    <rows>1</rows>
    <cols>10</cols>
    <dt>i</dt>
    <data>
      0 1 2 3 4 5 6 7 8 9</data></class_labels>
  <sv_total>45</sv_total>
  <support_vectors>
    <_>
      2.75321603e-002 3.18134539e-002 3.15250754e-002 2.95042172e-002
      2.26795170e-002 0. 0. 0. 1.26617942e-002 4.12385873e-002
      6.00999072e-002 5.90117909e-002 4.54550534e-002 1.49468910e-002 0.
      0. 0. 2.50736531e-002 2.41833031e-002 5.65763004e-002
      5.29145896e-002 5.10267764e-002 4.94011864e-002 -1.31342549e-005
      0. 0. 8.10057577e-003 2.21101437e-002 2.41236500e-002
      1.58754941e-002 9.16433427e-003 -4.68763933e-002 -1.11527951e-003
      -2.29090183e-005 -2.03041454e-005 8.55603721e-004 6.64046258e-002
      4.85304482e-002 4.71863896e-002 4.22812663e-002 1.27352513e-002
      -8.81202068e-005 -1.28350111e-005 -4.01653188e-006 5.50937913e-002
      4.64079380e-002 -2.43345671e-003 -8.43296573e-003 -1.70350708e-002
      -1.83335450e-002 -4.03287413e-004 -8.21492504e-005
      -2.94291676e-005 3.50074768e-002 2.81397230e-003 1.30686667e-002
      8.64275917e-003 4.79637505e-003 -3.67380306e-002 -2.47789547e-003
      -1.33355905e-003 -9.13078315e-004 -3.96090420e-003
      -1.94648597e-002 -3.72514427e-002 -4.51829173e-002
      -4.80696522e-002 -5.71733378e-002 -8.43655225e-003
      -5.25622815e-003 -3.64202191e-003 -1.42089650e-002 2.20314488e-002
      9.05856118e-003 5.56629105e-003 1.88888796e-003 2.11816970e-002
      -3.57990805e-003 -1.95588311e-003 -1.23570173e-003 2.41511576e-002
      1.18891047e-002 -1.57866571e-002 -2.67840624e-002 -2.66823210e-002
      1.25968549e-002 8.29849392e-003 4.82725585e-003 1.52799804e-002
      2.44805776e-002 -1.66111756e-002 -2.64739804e-002 -3.62540707e-002
      -3.55380476e-002 -3.04036792e-002 -3.29809915e-003
      -2.14409130e-003 -1.49009400e-003 -1.21351834e-002
      -1.67847686e-002 -2.17340179e-002 -2.47785933e-002
      -2.46190950e-002 -2.22435687e-002 -2.88914685e-004
      -2.95269187e-004 -2.97459977e-004 -1.56562254e-002 8.93138163e-003
      -2.16181073e-002 -3.11376955e-002 -2.78616566e-002
      -7.65977334e-003 1.17848413e-002 1.10003576e-002 1.58452876e-002
      1.74892414e-002 -1.69057176e-002 -2.55944170e-002 -3.24104540e-002
      -3.74702178e-002 -1.55822812e-002 9.00647417e-003 1.43052442e-002
      1.59232803e-002 2.19487795e-003 -1.51965311e-002 -1.13111427e-002
      -2.01232098e-002 -1.98780149e-002 -1.75014213e-002 1.71518022e-005
      4.87700381e-005 8.76652921e-005 -1.31939314e-002 -3.04553611e-003
      -2.08804663e-003 -5.64866979e-003 -6.18255604e-003
      -4.19188850e-003 3.71064903e-004 5.19666763e-004 7.66633428e-004
      -1.13976642e-003 -1.16856014e-002 -1.47802783e-002
      -1.68362148e-002 -2.14912277e-002 -1.18045937e-002 7.22935947e-004
      1.00691654e-002 9.13792942e-003 -5.31977369e-003 -3.97067633e-004
      -3.97629431e-003 -5.65016270e-003 -5.93775650e-003
      -8.21540225e-003 -9.81094502e-003 1.06404889e-002 1.13202203e-002
      5.52350236e-003 4.04910650e-003 -2.14207292e-004 -1.95875837e-004
      -2.42872804e-004 -1.90680748e-005 5.99812018e-004 1.15242577e-003
      1.04450190e-003 5.62955905e-003 9.54817049e-003 0. 0. 0.
      7.90904800e-004 3.29498178e-003 6.87459344e-003 6.95263129e-003
      1.86040662e-002 3.87767190e-003 -1.58639450e-004 -2.19413458e-004
      -2.28417543e-004 -1.31483097e-002 -2.05965769e-002
      -4.73870430e-003 2.37515708e-003 4.37740423e-003 -4.12420509e-003
      1.02554504e-005 1.64846824e-005 1.31757879e-005 -1.27067789e-002
      -1.07024647e-002 3.72607354e-003 5.53128263e-003 -2.93843937e-003
      1.00003304e-002 0. 0. 0. -5.73980971e-004 5.06651541e-003
      1.26645714e-002 1.28790746e-002 7.32567394e-003 -9.29277577e-003
      0. 0. 0. -4.32720827e-003 -7.82581605e-003 -2.02925550e-003
      -3.57982912e-003 -9.29706544e-003 4.31629680e-002 7.58029148e-002
      6.96823299e-002 8.00894499e-002 8.63405168e-002 -1.34467191e-004
      -8.73389072e-005 -2.34105391e-005 1.39568141e-002 7.22154789e-003
      2.08075233e-002 1.37979602e-002 1.14090368e-002 -1.11997267e-002
      -1.40844677e-002 -1.33298254e-002 -9.47368611e-003
      -1.41140574e-003 2.14232486e-002 4.15226445e-002 3.29309665e-002
      4.60867174e-002 6.73469156e-002 -3.04125442e-005 -3.17596023e-005
      -8.51292225e-006 7.03174714e-003 -7.70277902e-003 -2.33950596e-002
      -2.60112118e-002 -2.33956389e-002 -3.00397370e-002
      -1.52707445e-002 -1.31675834e-002 -1.21139670e-002
      -5.40880067e-003 2.32686196e-002 4.21120264e-002 3.70431766e-002
      3.25087681e-002 -3.44352145e-003 -1.22853890e-002 -1.08001903e-002
      -8.35243147e-003 2.38694786e-003 -4.67800070e-003 -2.15201769e-002
      -3.10362279e-002 -3.12283654e-002 -5.48765659e-002
      -7.98365567e-003 -4.85537387e-003 -3.76292155e-003
      -2.55846512e-003 -5.12585510e-003 -2.11054198e-002
      -2.37581674e-002 -2.30601411e-002 -4.82544452e-002
      -1.85265951e-002 -1.67655014e-002 -1.56021249e-002
      -3.33824987e-003 -4.09020763e-003 -2.34930664e-002
      -2.91012656e-002 -3.06688678e-002 -7.46997595e-002
      -1.49377305e-002 -1.22204302e-002 -7.33798742e-003
      -2.94997543e-003 -6.30666781e-003 -4.00184989e-002
      -5.06591573e-002 -5.66260740e-002 -8.28350559e-002
      -6.18875725e-003 -3.55025404e-003 -2.56067445e-003
      -4.45860997e-003 -1.30786584e-003 -1.13120014e-002
      -1.98986903e-002 -1.96980331e-002 -1.33570479e-002 0. 0. 0.
      -9.82411439e-004 -1.64478715e-003 -1.16484929e-002
      -1.79802198e-002 -1.94007847e-002 -4.91339751e-002
      -1.34406183e-002 -1.18787354e-002 -5.36818430e-003
      -1.36479037e-003 -5.59150300e-004 -6.23498065e-003
      -1.47573762e-002 -1.44640002e-002 -1.16527565e-002
      -2.30160208e-006 0. 0. -4.28130414e-004 -1.64480403e-003
      -2.08477080e-002 -2.85261385e-002 -2.85261385e-002
      -1.78536754e-002 0. 0. 0. -1.33478036e-003 -4.12186237e-005
      -4.33086156e-004 -1.63819536e-003 -1.73683942e-003
      -7.42830860e-004 0. 0. 0. -2.62359154e-005 -3.11044831e-004
      -3.10227787e-003 -1.15350345e-002 -1.26889208e-002
      -1.01365801e-002 0. 0. 0. -2.22687682e-004 -1.90097225e-007
      -8.53463632e-007 -9.57596694e-006 -1.08179747e-005
      -6.55927033e-006 0. 0. 0. -1.90097225e-007 0. 0. 0. 0. 0. 0. 0. 0.
      0. 2.39252429e-002 0. 0. 0. 1.26409177e-002 -7.86060374e-003
      7.40400935e-003 1.76917370e-002 2.33725328e-002 0. 0. 0. 0. 0. 0.
      0. 0. 0. 0. 0. 0. 0. 0. 0. 0. 0. 0. 1.15973242e-002 0. 0. 0.
      -1.33249661e-004 -1.23965775e-003 -6.05059089e-004 1.89276016e-003
      1.56208323e-002 -1.09239090e-002 0. 0. 0. 1.22571277e-004
      5.75086288e-003 1.05407238e-002 7.02807261e-003 -2.22551581e-002
      -6.21030631e-005 0. 0. 0. -1.66020072e-005 -8.21025387e-005
      -8.95935736e-005 -7.53784552e-005 -1.38005882e-004 3.73023271e-004
      0. 0. 0. 6.53700918e-005 -7.13906251e-004 -4.70494590e-004
      -1.38468149e-005 3.12155607e-004 2.50195879e-002 4.46696170e-002
      3.77029367e-002 4.87359874e-002 5.24806231e-002 -1.42224030e-006
      2.26070970e-005 7.33507186e-005 9.34675429e-003 -3.86571162e-003
      -2.03691293e-002 -2.23848317e-002 -1.99878402e-002
      -2.92494707e-002 -1.94717161e-002 -1.64561030e-002
      -1.68799348e-002 -3.36247450e-003 2.20135250e-003 1.93668213e-002
      1.24374982e-002 1.93270184e-002 4.28924598e-002 3.57712572e-003
      -8.68542760e-004 1.36121828e-003 6.06490707e-004 -2.16321740e-002
      -3.74042057e-002 -3.92664187e-002 -3.88010778e-002
      -5.41128926e-002 -1.51422629e-002 -9.31815710e-003
      -9.80953220e-003 -2.05999650e-002 -6.70723058e-003
      -3.29900831e-002 -3.51353176e-002 -3.50721329e-002
      -4.47833650e-002 -1.35585247e-002 -9.82119143e-003
      -9.19555966e-003 -3.20014753e-003 -3.55982012e-003
      -1.13888439e-002 -1.61817428e-002 -1.70020089e-002
      -5.07582277e-002 -2.44554263e-002 -1.98392756e-002
      -1.20196501e-002 -2.70685367e-003 -1.54535277e-002
      -2.83282809e-002 -3.38058136e-002 -3.86915803e-002
      -5.09461388e-002 -1.29346587e-002 -1.23639423e-002
      -1.00640375e-002 -1.41177634e-002 -1.32756652e-002
      -1.65271759e-002 -1.88893396e-002 -1.88972354e-002
      -4.95439246e-002 -2.83252224e-002 -2.42066197e-002
      -1.85177866e-002 -1.41611053e-002 -3.50127742e-003
      -1.56062543e-002 -1.93302259e-002 -1.93302259e-002
      -4.91354465e-002 -1.39171537e-002 -1.29117258e-002
      -6.63752155e-003 -2.54448317e-003 -5.28421893e-004
      -3.78291821e-003 -9.74137150e-003 -9.79379285e-003
      -1.11893741e-002 -3.43528256e-004 -2.93963705e-004
      -1.10565874e-004 -2.94710888e-004 -1.17433043e-002
      -1.13743991e-002 -1.52089121e-002 -1.55740380e-002
      -5.88070303e-002 -4.03910615e-002 -3.59796211e-002
      -3.18839625e-002 -7.21863518e-003 -1.53883337e-003
      -2.55306950e-003 -6.21158676e-003 -6.63445285e-003
      -1.11299176e-002 -1.96435652e-003 -1.53201364e-003
      -1.13806769e-003 -5.34775318e-004 -5.46818133e-004
      -6.60319952e-003 -1.92985423e-002 -2.00374555e-002
      -1.34638557e-002 0. 0. 0. -3.18926963e-004 0. 0. 0. 0. 0. 0. 0. 0.
      0. -5.13352206e-005 -7.01378216e-004 -3.50242923e-003
      -3.83560313e-003 -1.02192338e-003 0. 0. 0. -1.94406075e-005 0. 0.
      0. 0. 0. 0. 0. 0. 0. 0. 0. 0. 0. 0. 0. 0. 0. 0. 0. 0. 0. 0. 0. 0.
      0. 0. 0. 0. 0. 0. 0. 0. 0. 0. 0. 0. 0. 0. 0. 0. 0. 0. 0. 0. 0. 0.
      0. 0. 0. 0. 0. 0. 0. 0. -3.01861879e-003 0. 0. 0. -1.07731204e-003
      -1.34431571e-003 -1.43368193e-003 -2.93345656e-003
      -4.15191101e-003 0. 0. 0. 0. 0. 0. 0. 0. 0. 0. 0. 0. 0. 0. 0. 0.
      0. 0. 4.46429430e-003 3.12028881e-002 2.62836721e-002
      2.81405021e-002 4.13086116e-002 5.69313904e-003 2.26739980e-003
      4.47774865e-003 -8.08818545e-003 -2.62897536e-002 -1.65866930e-002
      -1.91171765e-002 -2.13093292e-002 -4.58952673e-002
      -2.14696657e-002 -1.32229188e-002 -3.37183811e-002
      -2.78972704e-002 -1.10763274e-002 -7.85199925e-003
      -1.08423075e-002 -7.55850831e-003 2.77873240e-002 1.39024546e-002
      1.39033906e-002 1.57422386e-002 -3.06410948e-003 -1.56350993e-002
      -1.43056493e-002 -1.74705647e-002 -1.93612017e-002
      -2.10924502e-002 -2.54947995e-003 -2.06573587e-003
      -2.05154601e-003 -1.57567523e-002 -2.51627117e-002
      -3.55785936e-002 -3.78709063e-002 -4.33660932e-002
      -5.70332222e-002 -8.52252264e-003 -8.07437021e-003
      -6.14892598e-003 -2.03924291e-002 -1.75522882e-002
      -1.23480866e-002 -1.64714511e-002 -1.99882984e-002
      -3.87352630e-002 -2.79004425e-002 -2.46005021e-002
      -2.24125609e-002 -1.71647221e-002 -1.39531177e-002
      -1.11092199e-002 -1.50288502e-002 -1.65728256e-002
      -4.05328237e-002 -4.91794432e-003 -4.54311538e-003
      -4.45264485e-003 -1.10576060e-002 -7.27071380e-003
      -2.46469341e-002 -2.98974104e-002 -3.12237684e-002
      -3.49598601e-002 -9.17002931e-003 -7.95818307e-003
      -6.43524621e-003 -4.88705933e-003 -1.76356304e-002
      -2.26958934e-002 -3.18715386e-002 -3.39379236e-002
      -4.80021983e-002 -2.99259406e-002 -2.58807205e-002
      -1.87311899e-002 -1.71444081e-002 -2.07877811e-003
      -1.89410197e-003 -1.99955888e-003 -2.75473460e-003
      -1.58940572e-002 -3.06247850e-003 -2.20342935e-003
      -1.61071436e-003 -6.07978844e-004 -3.31554632e-003
      -1.87528320e-002 -2.60192044e-002 -3.03628687e-002
      -3.65535095e-002 -1.03003066e-002 -8.36710073e-003
      -6.27936795e-003 -2.36802478e-003 -3.04684218e-004
      -2.04923307e-003 -2.84824031e-003 -3.77487647e-003
      -1.30666401e-002 -9.68184264e-004 -7.14201131e-004
      -5.23953291e-004 -1.76026049e-004 0. 0. 0. 0. 0. 0. 0. 0. 0. 0. 0.
      0. 0. 0. 0. 0. 0. 0. 0. 0. 0. 0. 0. 0. 0. 0. 0. 0. 0. 0. 0. 0. 0.
      0. 0. 0. 0. 0. 0. 0. 0. 0. 0. 0. 0. 0. 0. 0. 0. 0. 0. 0. 0. 0. 0.
      0. 0. 0. 0. 0. 0. 0. 0. 0. 0. 0. 0. 0. 0. 0. 0. 0. 3.39569027e-007
      3.52424621e-007 6.30324166e-007 0. 1.05941876e-006 0. 0. 0.
      3.39569027e-007 1.05979654e-003 1.06669497e-003 1.01961871e-003
      6.21637038e-004 1.31644905e-004 0. 0. 0. 5.42416819e-004
      4.75887384e-004 9.21564526e-004 9.11653333e-004 7.46912439e-004
      8.30793811e-004 0. 0. 0. 2.87364324e-004 2.02709306e-002
      7.26569071e-003 8.37429892e-003 6.09844131e-003 4.36397921e-003 0.
      0. 0. 1.40393935e-002 -3.96230854e-002 -2.00336557e-002
      -2.03433763e-002 -2.06454489e-002 4.12267037e-002 1.75858177e-002
      1.54840536e-002 1.80258434e-002 -2.80183777e-002 -3.67547721e-002
      -1.48630738e-002 -1.78705901e-002 -1.84550658e-002
      -6.85949065e-003 -1.01963365e-002 -7.39255967e-003
      -6.79427991e-003 -3.20648625e-002 -4.09971438e-002
      -1.66627076e-002 -1.93941258e-002 -2.14890540e-002 7.11309016e-002
      7.96711668e-002 8.09439346e-002 8.15917328e-002 1.60204805e-003
      -5.67351542e-002 -2.16148403e-002 -2.22823657e-002
      -2.39908267e-002 -2.22811941e-003 4.91237640e-003 1.19690057e-002
      1.22573795e-002 -4.68999259e-002 -3.79204862e-002 -1.44137964e-002
      -2.99991015e-002 -4.48699854e-002 -5.11518493e-002
      -8.07660166e-003 -7.12715229e-003 -5.49201434e-003
      -3.30270492e-002 -2.62614936e-002 -2.38474496e-002
      -2.38474496e-002 -2.38484293e-002 -2.05885191e-002
      -4.54949355e-003 -4.57916595e-003 -3.27886804e-003
      -2.16821358e-002 -4.71519157e-002 -1.83714665e-002
      -1.93680543e-002 -2.18320061e-002 8.30883626e-003 6.62068510e-003
      1.51370326e-002 1.48916766e-002 -3.25261578e-002 -3.33733261e-002
      -1.13578085e-002 -1.25571787e-002 -1.57081783e-002
      -1.28985401e-002 -1.83545258e-002 -1.86790731e-002
      -1.64047182e-002 -3.20906043e-002 -2.13947780e-002
      -4.06059250e-002 -4.06059250e-002 -4.06059250e-002
      -4.14369106e-002 -3.64325661e-003 -3.35823791e-003
      -2.14289967e-003 -1.48437498e-002 -1.71143067e-004
      -1.60985033e-003 -2.11197208e-003 -2.98250467e-003
      -3.56962322e-003 -2.99334602e-006 -7.67407164e-006
      -5.64699803e-006 -1.43261277e-004 -2.44722608e-002
      -1.02946730e-002 -1.19432509e-002 -1.52253946e-002
      -2.18766965e-002 -2.72204522e-002 -2.72204522e-002
      -2.67725363e-002 -2.97301169e-002 -8.95142206e-004
      -6.95050494e-006 -1.52628418e-005 -4.48973060e-006
      -1.18794944e-003 -2.41696509e-003 -2.51348852e-003
      -1.68184913e-003 -2.84542097e-003 0. 0. 0. 0. 0. 0. 0. 0. 0. 0. 0.
      0. 0. 0. 0. 0. 0. 0. -7.39244139e-003 -2.52856058e-003
      -1.43437914e-003 -1.46313303e-003 -1.30858761e-003
      -3.06539726e-003 -2.31132144e-003 -2.08477234e-003
      -8.00862629e-003 -1.35058137e-002 -1.16545344e-002
      -4.17018356e-003 -1.27244759e-002 -3.48633301e-004 0. 0. 0.
      -1.71274859e-002 -4.20684606e-004 -1.22283353e-004
      -1.16988369e-004 -1.26426312e-004 -6.03864828e-005 0. 0. 0.
      -2.40799607e-004 -4.05040057e-003 1.03380252e-003 9.23927524e-004
      -2.71786179e-004 -3.49551774e-005 0. 0. 0. -3.76099255e-003
      -1.19890124e-002 -4.55001323e-003 -3.08652944e-003
      -8.61451216e-003 -1.61635480e-003 0. 0. 0. -1.42874531e-002
      2.10575294e-002 3.41823809e-002 3.63109782e-002 2.46031694e-002
      1.39133027e-002 0. 0. 0. 9.75029822e-003 -5.82803553e-003
      3.26516968e-003 2.74728960e-003 1.06742966e-003 2.70831888e-003 0.
      0. 0. -6.83131814e-003 2.98984954e-003 1.03377448e-002
      1.08311679e-002 6.13148836e-003 3.28345643e-003 -3.46876070e-004
      -2.49229110e-004 -2.90939643e-004 -2.42871698e-003 7.05635780e-003
      2.00137962e-002 1.82898324e-002 1.13814967e-002 3.95043707e-003 0.
      0. 0. -2.79312977e-003 2.12304993e-003 1.80858932e-002
      1.55601930e-002 1.16957314e-002 2.84156203e-003 -7.46125996e-004
      -5.93297998e-004 -5.89977484e-004 -2.30650930e-003
      -4.19678278e-002 -1.57543365e-002 -2.00924091e-002
      -2.16092132e-002 3.55600417e-002 4.65415865e-002 5.15544564e-002
      5.11850230e-002 -1.85803790e-002 -4.83453460e-002 -7.77257094e-003
      -8.82818643e-003 -9.17960797e-003 -5.98319387e-003 1.57409329e-002
      2.58994270e-002 2.78605912e-002 -2.78963223e-002 -3.16692740e-002
      -2.71626865e-003 -2.92826188e-003 -3.28240404e-003 1.11466171e-002
      2.35752016e-002 3.37959379e-002 3.40426974e-002 -1.34328483e-002
      -1.37901343e-002 -2.81063048e-003 -2.88277213e-003
      -3.45903495e-003 1.98439974e-002 5.36413565e-002 5.62751964e-002
      5.81455864e-002 6.22900110e-003 -4.55324911e-002 -7.55373156e-003
      -7.56347831e-003 -5.82912704e-003 1.31868885e-003 -1.20274257e-003
      4.97768819e-003 7.35683599e-003 -4.00865376e-002 -3.04316189e-002
      -1.48382806e-003 -1.77541515e-003 -1.98263745e-003
      -2.10269578e-002 -3.21234651e-002 -3.00258622e-002
      -2.59947814e-002 -3.67717482e-002 1.96930412e-002 -5.09677315e-003
      -7.84875359e-003 -7.37662381e-003 1.80497300e-002 5.43561503e-002
      6.38105199e-002 6.84254915e-002 2.29025334e-002 8.42025876e-003
      -6.56260597e-003 -1.44115090e-002 -1.12433229e-002 7.05075404e-003
      -4.88245208e-003 3.22394748e-003 8.03462043e-003 1.83050018e-002
      -2.41661016e-002 -3.32370494e-003 -3.95219587e-003
      -3.96884419e-003 -1.05145089e-002 -1.93584859e-002
      -1.86534375e-002 -1.51023744e-002 -2.63109282e-002
      -2.17886474e-002 -5.59735298e-003 -6.29520556e-003
      -5.99986548e-003 -4.17872891e-003 -9.73369274e-003
      -9.23714601e-003 -5.99981192e-003 -2.56121308e-002 5.13304723e-003
      -4.87967441e-003 -1.00220460e-002 -7.85866287e-003 5.47380820e-002
      -2.30143801e-003 -1.13364793e-002 -1.11627709e-002 4.94394079e-003
      1.67851895e-002 1.42700961e-002 1.35570532e-002 1.45639693e-002
      3.09050698e-002 -1.86447725e-002 -1.95276663e-002 -1.50189837e-002
      1.38209462e-002 -1.90259311e-002 -7.44885067e-003 -7.93674216e-003
      -7.55580841e-003 -2.51023937e-003 -2.04496132e-003
      -2.12497241e-003 -1.84394792e-003 -2.06065215e-002
      -9.72721074e-003 -3.44049744e-003 -2.10673595e-003
      -7.19048036e-003 -1.94984477e-003 -5.18563902e-004
      -5.93690667e-004 -4.85574099e-004 -1.44693255e-002 2.26250920e-003
      1.89466812e-002 1.90007854e-002 1.31230941e-002 -1.57993305e-002
      -3.38378102e-002 -3.28391604e-002 -3.14278454e-002
      -8.29775352e-003 2.33521927e-002 4.64171059e-002 6.04781583e-002
      3.95980664e-002 -1.25549240e-002 -1.36685930e-002 -1.29029425e-002
      -1.45173902e-002 1.79580264e-002 2.98882020e-003 4.27560590e-004
      1.35838450e-003 -4.57058800e-003 -3.35297460e-004 -1.16634168e-004
      -1.23877486e-004 -8.93300239e-005 -8.22642352e-003 1.59278642e-002
      1.83365885e-002 2.10050158e-002 1.09620094e-002 4.16607875e-003 0.
      -4.56203765e-007 -6.31459500e-007 3.57278995e-003 2.50132699e-002
      3.24485786e-002 3.77129428e-002 2.25073602e-002 -5.11170179e-003
      -1.03991656e-002 -8.74998327e-003 -1.09381387e-002 1.87140815e-002
      8.45247600e-003 7.15325726e-003 1.91030353e-002 -5.42192906e-003
      -4.41183336e-002 -2.40588351e-003 -1.29038375e-003
      -2.45404174e-003 1.43331364e-002 1.61303133e-002 1.90046169e-002
      1.88000537e-002 1.17708715e-002 6.30492112e-003 0. 0. 0.
      1.65649820e-002 2.01574434e-002 1.21396724e-002 1.44701172e-002
      2.17839424e-003 3.75990570e-003 2.02206880e-004 2.67776399e-004
      2.70943303e-004 1.26465848e-002 3.02809034e-003 9.73908510e-003
      1.65718514e-002 -3.77987372e-003 -1.43144224e-002 -2.01365817e-003
      -1.31158251e-003 -2.24208925e-003 -3.29276343e-004
      -3.77709512e-003 -1.62880309e-002 -1.28451260e-002
      -2.32877992e-002 -1.20192776e-002 5.56846149e-004 7.32740737e-004
      7.48546910e-004 -2.01819884e-003</_>
    <_>
      1.67032778e-002 2.39488073e-002 2.34515350e-002 2.25568227e-002
      2.01072935e-002 -1.32612046e-003 -1.01278024e-003 -9.04646819e-004
      4.44992771e-003 3.75718698e-002 4.67356704e-002 4.71281148e-002
      3.77024785e-002 1.80766117e-002 -6.50454720e-004 -4.50043241e-004
      -5.01343166e-004 2.15182323e-002 -7.47307949e-003 3.78055349e-002
      3.52867506e-002 3.21767330e-002 2.33885460e-002 -1.22446027e-002
      -8.05531442e-003 -1.11487741e-002 -2.20268350e-002 3.04495031e-003
      3.05931251e-002 2.87325382e-002 2.43102685e-002 1.69912782e-002
      -5.16091892e-003 -3.65262525e-003 -4.94284928e-003
      -1.48554137e-002 6.00824654e-002 4.27100100e-002 4.30447720e-002
      4.09280546e-002 2.35859808e-002 -6.45486725e-005 -4.61794443e-005
      -6.04269590e-005 5.15311100e-002 3.96017283e-002 1.64216496e-002
      1.00969328e-002 5.89514384e-003 -1.46226855e-002 2.00778377e-005
      1.15327548e-005 1.62439537e-005 3.56700085e-002 -7.91503303e-003
      1.96704883e-002 1.81374233e-002 1.42032467e-002 1.32564723e-003
      -2.01126281e-003 -1.55904959e-003 -1.37763994e-003
      -1.63269639e-002 -4.30591963e-002 -4.02640440e-002
      -5.62707148e-002 -6.15405813e-002 -5.79136573e-002
      -3.21784639e-003 -1.51041429e-003 -4.74144617e-004
      -3.62575240e-002 3.45064960e-002 1.20467404e-002 5.94890257e-003
      3.70272109e-003 1.66616347e-002 1.07746769e-003 8.29101307e-004
      1.03798730e-003 3.44040133e-002 7.90720619e-003 -1.88698154e-002
      -2.77860481e-002 -2.91978978e-002 1.42870108e-002 9.09926090e-003
      4.65429714e-003 1.03626493e-002 1.63107459e-002 -3.50616835e-002
      -2.71151215e-002 -3.64473276e-002 -4.18893285e-002
      -3.17783952e-002 -1.27084763e-003 -7.18564726e-004
      -2.46853306e-004 -2.55900361e-002 -4.09546345e-002
      -2.85041723e-002 -3.36634107e-002 -3.71894985e-002
      -3.04670017e-002 -2.40865210e-003 -1.76178000e-003
      -1.57628162e-003 -3.27908993e-002 5.82782039e-003 -2.66887229e-002
      -3.38566191e-002 -2.53915116e-002 2.17918167e-003 2.89736222e-003
      2.82950932e-003 5.24948491e-003 2.62350775e-003 -1.45927910e-002
      -3.16792801e-002 -3.52894776e-002 -3.64842303e-002
      -1.76606532e-002 1.04581295e-002 1.25453984e-002 1.34674618e-002
      -1.20581861e-003 -3.38239707e-002 -1.64798088e-002
      -1.62620936e-002 -1.90316737e-002 -8.57685227e-003
      -3.70194041e-003 -2.79675727e-003 -2.99269846e-003
      -2.27939915e-002 -1.23528158e-002 -5.84507361e-003
      -6.16252143e-003 -8.60223733e-003 -2.34943489e-003
      -7.11710600e-004 -4.85005614e-004 -4.95883694e-004
      -6.59019500e-003 -1.56627744e-002 -1.97942387e-002
      -2.15696935e-002 -2.35544778e-002 -2.22445782e-002 4.59667435e-003
      6.92385063e-003 8.11868813e-003 -5.60615631e-003 9.39304288e-003
      -8.80543434e-004 -1.00415933e-003 -1.26725051e-003
      -8.62903055e-003 -5.73400315e-003 9.79675242e-005 1.35910083e-002
      5.24630444e-003 -4.71243577e-004 -1.28529023e-003 -1.25158054e-003
      -1.58576225e-003 -3.29524744e-004 3.26880399e-004 5.76584775e-004
      4.99927730e-004 1.69823482e-003 4.67662001e-003 0.
      -1.74453419e-006 -2.34739855e-006 1.24214115e-004 1.37017618e-004
      3.11803981e-003 2.99681653e-003 7.88448472e-003 6.86219777e-004 0.
      0. 0. -7.24137295e-003 -1.26033807e-002 1.92536868e-003
      2.06097169e-003 -2.32150103e-003 5.20361282e-005 0. 0. 0.
      -7.99522735e-003 -6.04930846e-003 4.70103463e-003 5.69541659e-003
      -2.81982915e-003 6.06630696e-003 0. 0. 0. -3.19424260e-004
      -1.10352563e-003 3.80465668e-003 5.75925829e-003 1.60042092e-003
      -4.48547304e-003 0. 0. 0. -2.58881575e-003 -4.38135583e-003
      -7.98274879e-004 1.70968194e-003 -5.61060477e-003 5.94137749e-003
      4.86886352e-002 4.50419970e-002 4.77315001e-002 5.56651168e-002
      -9.76011250e-003 -5.78466151e-003 -7.61781959e-003
      -2.02888045e-002 -2.10467093e-002 2.18827799e-002 2.15985961e-002
      1.74939167e-002 1.21832080e-002 -8.49765074e-003 -6.58138609e-003
      -6.11170055e-003 -2.80379374e-002 -2.12931354e-002 2.31016390e-002
      9.98814777e-003 1.85062140e-002 3.99643220e-002 -2.06437092e-002
      -2.02408172e-002 -1.57764331e-002 -3.26039009e-002
      -3.41076180e-002 -5.35668712e-003 -1.41352294e-002
      -1.22605227e-002 -1.18177701e-002 -2.11501848e-002
      -1.96317378e-002 -1.48697048e-002 -3.69696431e-002
      -7.45526422e-003 4.18607742e-002 3.84014100e-002 2.70887520e-002
      1.99632999e-002 -4.31888131e-003 -4.00477182e-003 -2.77010887e-003
      -2.38218345e-002 -3.10121831e-002 -1.94340311e-002
      -2.45810114e-002 -2.87526064e-002 -4.69610766e-002
      -9.77550168e-003 -8.40358716e-003 -3.83623736e-003
      -2.68157721e-002 -3.21288481e-002 -7.25244032e-003
      -1.17660407e-002 -1.23043908e-002 -1.63981412e-002
      -1.47263752e-002 -1.60526223e-002 -1.12490673e-002
      -3.92316505e-002 -1.29341763e-002 -1.15283281e-002
      -1.61162466e-002 -1.75462831e-002 -4.03694361e-002
      -4.16044286e-003 -4.90021985e-003 -2.71107396e-003
      -1.33198323e-002 -4.11951914e-002 -3.13127749e-002
      -3.60850431e-002 -3.88448983e-002 -5.70372343e-002
      -8.71491246e-003 -7.42064416e-003 -3.33497534e-003
      -2.89368369e-002 -1.99443009e-002 -9.09040123e-003
      -9.06308182e-003 -1.31459748e-002 -3.13186012e-002
      -4.42971010e-003 -3.76837421e-003 -1.66633923e-003
      -1.65943429e-002 -7.57784443e-003 -8.55297688e-003
      -1.63949504e-002 -1.80959590e-002 -4.21347730e-002
      -2.10977066e-003 -2.04380346e-003 -9.65757587e-004
      -3.06295441e-003 -3.35432735e-004 -3.98655859e-004
      -8.84129026e-004 -9.13026219e-004 -2.66251359e-002
      -1.11079484e-003 -9.82213183e-004 -4.48373670e-004
      -2.22936171e-004 -1.87094491e-002 -1.72964614e-002
      -1.58411134e-002 -1.75737720e-002 -9.56034567e-003 0. 0. 0.
      -1.69470273e-002 -1.18832962e-004 -3.62513856e-005
      -3.06970505e-005 -4.79792361e-005 -3.37532583e-005 0. 0. 0.
      -4.91720384e-005 -2.16307435e-005 -4.36448045e-006
      -6.91491050e-006 -3.06586628e-007 -4.29246938e-006 0. 0. 0.
      -1.23367054e-005 0. 0. 0. 0. 0. 0. 0. 0. 0. 0. 0. 0. 0. 0. 0. 0.
      0. 0. 1.79960858e-002 0. 0. 0. -8.07568152e-003 6.95769268e-005
      2.30456397e-004 7.43386161e-004 1.88451074e-002 0. 0. 0. 0. 0. 0.
      0. 0. 0. 0. 0. 0. 0. 0. 0. 0. 0. 0. -2.44714785e-003 0. 0. 0.
      -4.57109491e-005 6.78532873e-004 1.53897062e-003 4.42021876e-004
      -2.81439070e-003 -8.78361147e-003 0. 0. 0. 1.52863760e-003
      -3.37070180e-003 5.35571622e-003 8.47112015e-003 -3.42717930e-003
      5.12577913e-007 0. 0. 0. 0. 0. 0. 0. 5.12577913e-007
      2.29280232e-003 0. 0. 0. 6.68723835e-004 1.97438616e-003
      2.38663796e-003 2.64513236e-003 3.70776514e-003 -1.06793141e-003
      2.91079748e-002 2.03899387e-002 2.95726918e-002 2.46873349e-002
      -2.28416938e-002 -1.85458865e-002 -1.51527515e-002
      -2.07905415e-002 -3.89188081e-002 -2.43560621e-003
      -5.10030938e-003 -3.80916242e-003 -5.75255044e-003
      -2.30768602e-002 -2.16039922e-002 -1.84348933e-002
      -4.15214524e-002 -1.85227916e-002 1.02987522e-002 7.21597485e-003
      9.94582754e-003 2.88503673e-002 -1.44088818e-002 -1.59489606e-002
      -1.10040661e-002 -1.93513352e-002 -3.33806500e-002
      -3.73751600e-003 -5.44668408e-003 -5.56696532e-003
      -1.33623583e-002 -2.46095452e-002 -2.02498715e-002
      -1.66667067e-002 -3.93083915e-002 -3.53615656e-002
      -1.08160470e-002 -1.06844893e-002 -1.14403786e-002
      -1.92697234e-002 -2.49469560e-002 -2.18305513e-002
      -1.64531786e-002 -4.20032442e-002 -2.11789869e-002
      -7.61200255e-003 -1.51128294e-002 -1.43157057e-002
      -2.00891439e-002 -1.15532354e-002 -1.07617769e-002
      -7.62559613e-003 -2.08382737e-002 -4.24596854e-002
      -5.50348498e-003 -1.04707284e-002 -1.15120038e-002
      -2.55888347e-002 -3.48297171e-002 -3.31860110e-002
      -2.96803806e-002 -4.70724255e-002 -2.09233724e-002
      -3.00118141e-003 -5.96848270e-003 -5.72733162e-003
      -1.42388707e-002 -1.93366650e-002 -1.58806723e-002
      -1.27027249e-002 -2.45604496e-002 -3.50789875e-002
      -1.86467338e-002 -3.48348022e-002 -3.46488319e-002
      -3.96550223e-002 -1.75489101e-003 -1.84256712e-003
      -1.10341096e-003 -2.44701523e-002 -8.64648900e-004
      -3.12811299e-003 -7.39103556e-003 -6.72188308e-003
      -1.79677941e-002 0. 0. 0. -4.70432889e-004 -2.28630509e-002
      -8.08261894e-003 -1.67959146e-002 -1.56311467e-002
      -2.06212755e-002 -1.56401880e-002 -1.20275570e-002
      -7.48716434e-003 -2.27488335e-002 -1.22909050e-003
      -2.16147653e-003 -4.82896436e-003 -4.50662617e-003
      -3.55160516e-003 -1.27605599e-004 -9.89917826e-005
      -1.94628719e-005 -5.34806575e-004 0. 0. 0. 0. 0. 0. 0. 0. 0. 0. 0.
      0. 0. 0. 0. 0. 0. 0. 0. 0. 0. 0. 0. 0. 0. 0. 0. 0. 0. 0. 0. 0. 0.
      0. 0. 0. 0. 0. 0. 0. 0. 0. 0. 0. 0. 0. 0. 0. 0. 0. 0. 0. 0. 0. 0.
      0. 0. 0. 0. 0. 0. 0. 0. 0. 0. 0. 0. 0. 0. 0. 0. 0. 0. 0. 0. 0. 0.
      0. 0. 0. 0. 0. 0. 0. 0. 0. 0. 0. 0. 0. 0. 0. 0. 0. 0. 0. 0. 0. 0.
      0. 0. 0. 0. 0. 0. 0. 0. 0. -6.07442809e-003 2.15042885e-002
      2.02763304e-002 1.97075773e-002 3.17931995e-002 -6.83042407e-003
      -1.05838375e-002 -7.27840979e-003 -2.11035609e-002
      -4.50078771e-002 -7.58925080e-003 -7.80077791e-003
      -7.86955748e-003 -2.75701582e-002 -3.19327600e-002
      -2.89941225e-002 -2.74641626e-002 -5.07831126e-002
      -9.09215398e-003 1.00297295e-003 -1.19892450e-003 -2.23202375e-003
      2.50342842e-002 1.36608714e-002 1.19730365e-002 1.56477895e-002
      -3.23873432e-003 -3.28411534e-002 -6.83327066e-003
      -8.52283742e-003 -9.76901967e-003 -1.86778177e-002
      -1.64195299e-002 -1.66269504e-002 -1.39687415e-002
      -3.52261923e-002 -3.54931578e-002 -1.06980978e-002
      -1.19714802e-002 -1.20078390e-002 -2.14296374e-002
      -2.46833637e-002 -2.10572556e-002 -1.73167214e-002
      -4.28116731e-002 -1.81477368e-002 -9.04050074e-004
      -3.06264102e-003 -3.26159736e-003 -1.29292468e-002
      -1.52990632e-002 -1.33221569e-002 -1.15521839e-002
      -2.14104187e-002 -3.58474664e-002 -5.38624031e-003
      -5.71203511e-003 -8.51068925e-003 -2.90173739e-002
      -2.55151987e-002 -2.44953241e-002 -2.38055754e-002
      -4.01454680e-002 -1.78961307e-002 -1.69442897e-003
      -3.64262820e-003 -4.02442319e-003 -2.90052388e-002
      -3.09018753e-002 -2.94462144e-002 -1.75704807e-002
      -2.39229612e-002 -3.84357385e-002 -8.52015568e-004
      -2.22611963e-003 -2.42186128e-003 -1.06348759e-002
      -1.84476972e-002 -1.53271062e-002 -9.94462334e-003
      -4.08592001e-002 -2.65676831e-003 -2.68255462e-006
      -6.84325460e-006 -1.26137838e-005 -1.16503541e-003
      -1.10626186e-003 -1.02052081e-003 -2.64916976e-004
      -1.47294521e-003 -1.36079658e-002 -2.18871445e-003
      -5.96053386e-003 -6.98558148e-003 -3.44748460e-002
      -3.12772393e-002 -3.03472169e-002 -2.26878002e-002
      -1.86317563e-002 -1.00942088e-004 -1.42596517e-004
      -5.05269330e-004 -6.51776849e-004 -1.11190816e-002
      -4.22609178e-003 -3.96586861e-003 -1.86696777e-003
      -1.78056362e-004 0. 0. 0. 0. 0. 0. 0. 0. 0. 0. 0. 0. 0. 0. 0. 0.
      0. 0. 0. 0. 0. 0. 0. 0. 0. 0. 0. 0. 0. 0. 0. 0. 0. 0. 0. 0. 0. 0.
      0. 0. 0. 0. 0. 0. 0. 0. 0. 0. 0. 0. 0. 0. 0. 0. 0. 0. 0. 0. 0. 0.
      0. 0. 0. 0. 0. 0. 0. 0. 0. 0. 0. 0. 7.33236405e-008
      7.60995675e-008 1.36106820e-007 0. 2.28761834e-007 0. 0. 0.
      7.33236405e-008 2.28843419e-004 2.30332997e-004 2.20167771e-004
      1.34230984e-004 2.84262769e-005 0. 0. 0. 1.17124851e-004
      6.37616249e-005 1.98994778e-004 1.96854642e-004 1.61281903e-004
      1.79394512e-004 0. 0. 0. 2.30535607e-005 1.51708908e-003
      1.17496087e-003 1.22615055e-003 1.11581653e-003 8.38592299e-004 0.
      0. 0. 6.97333948e-004 -2.08960157e-002 -7.26324739e-003
      -9.08164773e-003 -9.77718830e-003 2.76968144e-002 1.97397005e-002
      1.34522961e-002 2.02835072e-002 -1.07251760e-002 -2.36094743e-002
      -3.91787756e-003 -6.26782700e-003 -6.73423475e-003
      -1.62394233e-002 -7.47974170e-003 -8.78730882e-003
      -3.87330377e-003 -2.41577812e-002 -2.29475182e-002
      -1.30007844e-002 -2.02194545e-002 -2.07239147e-002 4.69692759e-002
      5.84388301e-002 5.75981438e-002 5.90212233e-002 5.95321227e-003
      -5.43651655e-002 -2.72756349e-002 -3.07652876e-002
      -2.96667218e-002 -1.00443922e-002 4.18140600e-003 4.86812787e-003
      7.34069757e-003 -4.82270010e-002 -2.47889236e-002 -8.00716132e-003
      -1.29394904e-002 -1.39198098e-002 -2.27551013e-002
      -1.26317386e-002 -1.19896661e-002 -6.22430909e-003
      -2.69220714e-002 -2.21095402e-002 -1.03205396e-002
      -1.97616909e-002 -2.03066133e-002 -3.80093008e-002
      -9.62513592e-003 -1.04726078e-002 -5.10151638e-003
      -2.11960655e-002 -5.13203964e-002 -2.01455858e-002
      -2.63302866e-002 -2.80428194e-002 1.40942854e-003 2.25398447e-002
      2.72613037e-002 2.79173218e-002 -3.82315777e-002 -3.89484428e-002
      -1.73454732e-002 -2.36522909e-002 -2.54125632e-002
      -2.73442380e-002 -1.75144291e-003 -1.26539846e-003
      -1.24586117e-003 -3.55354212e-002 -1.87787581e-002
      -1.65357515e-002 -2.53565405e-002 -2.50308029e-002
      -3.11819799e-002 -1.04534766e-002 -1.08555779e-002
      -5.88552328e-003 -1.49404332e-002 -6.26388006e-004
      -1.11243327e-003 -3.01244040e-003 -3.40327993e-003
      -1.56073812e-002 -1.49331510e-003 -1.24306197e-003
      -9.00410872e-004 -9.19598795e-004 -3.14931720e-002
      -1.40268831e-002 -2.07649861e-002 -2.26564985e-002
      -2.07279213e-002 -1.09166335e-002 -9.72477160e-003
      -8.96947086e-003 -2.31067017e-002 -1.01635084e-002
      -9.37279547e-004 -1.73182355e-003 -1.78842514e-003
      -7.72955455e-003 -1.04890550e-002 -8.56106915e-003
      -7.37344893e-003 -1.42822107e-002 -2.84943235e-005 0. 0. 0.
      -4.53424946e-005 -6.49167341e-005 -7.08400912e-005
      -8.49679491e-005 -4.52645836e-005 0. 0. 0. 0. 0. 0. 0. 0. 0.
      -7.71543104e-003 -3.95684474e-005 -6.38790079e-005
      -5.02016701e-005 -1.08174011e-002 -1.74754262e-002
      -1.53929424e-002 -1.50212711e-002 -2.06615478e-002 2.63074622e-003
      2.75514740e-003 1.56848761e-003 3.78095487e-004 3.41537059e-004
      -1.53370565e-005 -1.52259563e-005 -1.44056876e-005 6.65578642e-004
      1.10951953e-006 5.85205107e-010 7.12505823e-008 5.20873478e-008
      3.02336574e-008 0. 0. 0. 1.10951953e-006 3.87952052e-004
      4.15089278e-004 4.06055799e-004 2.35839019e-004 6.85439518e-005 0.
      0. 0. 1.61809439e-004 -8.96070432e-003 -8.22358881e-004
      4.68453247e-004 -3.79810401e-004 -4.80660703e-004 -9.03796099e-005
      -8.60347136e-005 -7.94785665e-005 -7.11510144e-003 1.41253090e-002
      2.63078399e-002 3.06646433e-002 2.52333004e-002 5.70040941e-003
      -8.37428379e-005 -7.83481810e-005 -7.01784011e-005 9.43064410e-003
      1.95372710e-003 1.20244559e-003 1.15107116e-003 8.26874515e-004
      7.86393299e-004 0. 0. 0. 8.27387732e-004 1.00480923e-002
      4.61892830e-003 4.50269412e-003 2.94040516e-003 1.11115666e-003 0.
      0. 0. 6.59885909e-003 1.37906792e-002 1.57953296e-002
      1.56749878e-002 9.46737546e-003 2.82909325e-003 -9.04999581e-007
      -8.17873740e-007 -1.05843992e-006 2.39992258e-003 -1.26977302e-002
      1.48773594e-002 1.24151343e-002 9.53011494e-003 2.28119036e-003 0.
      0. 0. -4.02879529e-003 -1.60929654e-002 -1.21199256e-002
      -1.65919363e-002 -1.77705735e-002 1.34122688e-002 3.27221453e-002
      3.22016627e-002 3.67324911e-002 -6.95152790e-004 -4.38448936e-002
      -1.90326069e-002 -2.26778816e-002 -2.23323349e-002 1.61080982e-003
      2.22342033e-002 2.68612690e-002 2.76306663e-002 -2.51158066e-002
      -1.75823085e-002 -1.04344171e-003 -1.89761422e-003
      -2.60232296e-003 -9.65797156e-003 6.05072407e-003 1.37448134e-002
      1.90008376e-002 -4.36842022e-003 9.01795086e-003 -5.48922596e-003
      -1.05638849e-002 -1.07688624e-002 2.78093782e-003 3.16548981e-002
      3.41244116e-002 3.97622138e-002 2.13112254e-002 -4.71113399e-002
      -1.77777745e-002 -2.17581447e-002 -2.22814158e-002
      -4.50421358e-004 1.42411096e-002 1.79481953e-002 1.80206634e-002
      -3.80020477e-002 -3.21350880e-002 -8.32183007e-003
      -9.26152430e-003 -1.09011121e-002 -6.09399984e-003
      -4.45134938e-003 -2.84342119e-003 -2.84164841e-003
      -2.61449739e-002 1.43208699e-002 -6.96270820e-003 -9.54126567e-003
      -1.10503193e-002 9.30670649e-003 4.18510623e-002 4.96799909e-002
      5.06639853e-002 3.10039949e-002 -5.83986565e-003 -1.48819964e-002
      -1.44072101e-002 -1.91979203e-002 7.83371623e-004 2.08539404e-002
      2.58144252e-002 2.84172948e-002 -1.42640818e-003 -1.25283059e-002
      -1.56854198e-003 -1.72410253e-003 -1.92805333e-003
      -4.63617779e-003 -8.34743679e-003 -6.63299859e-003
      -4.70390962e-003 -1.29086431e-002 -1.81240290e-002
      -2.77305907e-003 -3.50139593e-003 -3.49753234e-003
      -1.09980218e-002 -1.17596146e-002 -1.15007041e-002
      -1.09759774e-002 -1.88245010e-002 7.95348082e-004 -9.21620894e-003
      -1.35046737e-002 -1.49332806e-002 1.96092427e-002 1.13045806e-002
      1.14109665e-002 1.58661958e-002 -7.66180223e-004 1.27796540e-002
      1.01595428e-002 8.97699594e-003 6.07925048e-003 2.77580563e-002
      -6.25687977e-003 -8.49797204e-003 -1.43198133e-003 8.39098077e-003
      -1.49248289e-002 -3.89204058e-003 -4.99972980e-003
      -4.97886632e-003 -5.21724625e-003 -1.04898540e-002
      -9.31757316e-003 -5.22691896e-003 -1.94247477e-002
      -8.22863262e-003 3.09589459e-003 3.03679379e-003 7.21024466e-004
      -4.77723166e-004 -7.01719080e-004 -4.21358855e-004
      -5.37364394e-004 -1.23020485e-002 -5.79927291e-004 1.08748507e-002
      1.31053552e-002 3.12766340e-003 -7.30193127e-003 -1.96882244e-002
      -1.80406515e-002 -1.61398891e-002 -3.69798299e-003 3.87102808e-003
      3.73768061e-002 3.95002328e-002 3.18713002e-002 1.27445615e-003
      -1.88079719e-002 -1.33440141e-002 -1.22639136e-002 2.69973115e-003
      1.40228518e-003 7.56673189e-003 8.58515780e-003 3.58460587e-003
      2.90138240e-004 -1.00916412e-004 -1.06589905e-004 -9.85882434e-005
      -7.77693279e-003 6.27971068e-003 1.56197418e-002 1.78218819e-002
      1.11714927e-002 2.67403736e-003 -7.56702138e-005 -8.19250126e-005
      -6.61546655e-005 2.80459237e-004 -7.59664271e-003 2.64488272e-002
      2.93223672e-002 2.11507604e-002 -1.75703391e-002 -1.88006219e-002
      -1.53951850e-002 -1.40066808e-002 -9.78608336e-003 1.51019765e-003
      1.65097509e-002 1.85488295e-002 6.71877898e-003 -1.18438592e-002
      -1.77303539e-003 -1.62148173e-003 -1.23215746e-003 5.12097213e-005
      1.86350867e-002 2.11979076e-002 2.04771180e-002 1.78573746e-002
      9.05296206e-003 -1.31744468e-006 -1.63637162e-006 -3.02105900e-006
      1.42154032e-002 1.23396441e-002 7.60251749e-003 8.41465779e-003
      -1.53183332e-003 1.27100013e-003 -1.27175928e-003 -2.18884298e-003
      -2.10181624e-003 1.29305627e-002 -4.25214600e-003 9.42958705e-003
      1.06016044e-002 1.42852741e-003 -1.70849171e-003 0. 0. 0.
      -9.27956495e-003 -1.45299835e-002 -9.73979104e-003
      -1.00343358e-002 -9.98934172e-003 -9.58313514e-003
      -2.56318657e-004 -1.02648744e-003 -1.16998260e-003
      -1.57014783e-002</_>
    <_>
      7.84922577e-003 2.34314259e-002 1.24457758e-002 1.05856759e-002
      -1.08843697e-002 -1.30134318e-002 -1.37102297e-002
      -9.21659358e-003 -5.31151844e-003 1.97896976e-002 3.96916680e-002
      2.84950268e-002 2.41413116e-002 -1.66531857e-002 -2.34648809e-002
      -2.44271234e-002 -1.51696447e-002 1.22047425e-003 4.23656171e-003
      3.85642350e-002 3.15592736e-002 3.44315916e-002 1.34456567e-002
      -1.02832429e-002 -1.10818958e-002 -6.83686277e-003
      -1.18040070e-002 4.74479469e-003 3.61423641e-002 2.99596395e-002
      2.60656960e-002 -6.93994854e-003 -1.51025755e-002 -1.95002686e-002
      -1.11485552e-002 -1.04133505e-002 2.53496896e-002 4.89999279e-002
      4.37350310e-002 4.47854213e-002 -9.38645750e-003 -1.87052954e-002
      -1.88402068e-002 -1.36142233e-002 9.23263747e-003 1.76413823e-002
      2.81771533e-002 2.27221586e-002 1.88627001e-002 -9.01781209e-003
      -3.46706100e-002 -3.80357802e-002 -2.95229945e-002
      -6.46775821e-003 -4.77935793e-003 1.98002513e-002 1.38982954e-002
      1.12713678e-002 -1.68649163e-002 -1.99487284e-002 -1.98440179e-002
      -1.74624696e-002 -1.54187605e-002 -9.47936065e-003 1.72424607e-003
      -2.01199600e-003 -1.94434286e-003 -1.95661858e-002
      -2.91181691e-002 -3.20695750e-002 -2.36632545e-002
      -1.84732620e-002 1.02367224e-002 2.19927244e-002 2.21562944e-002
      1.87164303e-002 2.38733273e-002 -2.64885668e-002 -3.09135225e-002
      -1.96101684e-002 1.19141974e-002 5.53304423e-003 3.29350005e-003
      3.16358497e-003 3.90884699e-003 1.50343133e-002 -1.15204966e-002
      -1.33321248e-002 -2.11005239e-003 -4.22927988e-004
      -8.45834427e-003 9.32719850e-005 2.59038643e-005 2.48750748e-005
      -7.34716142e-003 -1.73097700e-002 -1.82940308e-002
      -1.66330952e-002 -1.47277117e-002 -1.30124427e-002 0. 0. 0.
      -4.67440812e-003 -1.79962963e-002 -1.97874177e-002
      -1.56710185e-002 -2.62600351e-002 -1.59878517e-003 1.99347222e-003
      1.11224945e-003 2.28650635e-003 -1.18862321e-004 -1.20952679e-002
      -1.05239367e-002 -2.57555745e-003 -3.56833497e-003
      -3.52960313e-003 -5.54900570e-003 -5.46599319e-003
      -5.94731001e-003 1.30749331e-003 1.20951459e-002 1.91284120e-002
      2.40381788e-002 -4.27542021e-003 -3.03264987e-002 -3.90358546e-005
      -1.77202674e-005 -1.42204881e-005 -4.07974608e-003
      -1.71494037e-002 -1.71667710e-002 -1.51060829e-002
      -3.49062495e-002 -2.66304500e-002 -6.57411059e-004
      -6.34282071e-004 -4.68389044e-004 -3.17250099e-003
      -1.12055959e-002 -8.51007365e-003 -7.94803351e-003
      -2.18823869e-002 -1.08826747e-002 -4.48512752e-003
      -3.79481143e-003 -3.21945548e-003 7.66942464e-003 1.23910150e-002
      1.64988153e-002 1.73552521e-002 -1.22991763e-002 5.09482529e-003
      -5.81125915e-003 -3.03797284e-003 -4.40721214e-003 1.83830652e-002
      2.15969309e-002 2.50817277e-002 2.85238288e-002 8.48950539e-003
      -1.90968812e-002 -2.81364424e-003 -2.54479866e-003
      -1.99695211e-003 -6.22052932e-003 -1.10442508e-002
      -9.02164634e-003 -9.24387481e-003 -1.66047569e-002
      -9.15998686e-003 -1.81706634e-003 -1.40497205e-003
      -1.27604080e-003 -3.59710911e-003 -3.45130940e-003 6.11303840e-004
      4.02408768e-004 -2.96179904e-003 4.43719141e-003 -7.91345350e-003
      -8.05559289e-003 -8.26728530e-003 2.10090727e-003 1.07814418e-002
      1.72353983e-002 1.58358719e-002 6.57806313e-003 6.78346120e-003
      -9.60096624e-003 -9.55957454e-003 -9.62966587e-003 2.01998372e-003
      1.74006298e-002 2.15479508e-002 2.03439984e-002 9.51227080e-003
      -4.96380776e-003 -8.96648737e-004 -1.03839685e-003
      -8.24039162e-004 -3.82682285e-003 -5.01042651e-003 2.98135099e-004
      -3.94022436e-006 -1.58018223e-003 7.54820940e-004 -5.07679349e-003
      -4.16365219e-003 -4.55193361e-003 -2.91998358e-003
      -3.62573098e-003 -3.41870065e-004 -4.41644865e-004 4.11195960e-003
      1.04812281e-002 5.19791692e-002 4.28835936e-002 5.28545603e-002
      6.15312383e-002 -2.41329242e-003 -3.07040545e-003 -1.90213847e-003
      -1.27406102e-002 -1.69813558e-002 7.63341319e-003 -4.08514217e-003
      1.30138814e-003 6.21428667e-003 -2.69987318e-003 -3.60019179e-003
      -2.79797288e-003 -1.74816363e-002 -2.58426033e-002 1.37073109e-002
      3.80387157e-003 1.82134807e-002 5.23278601e-002 -1.15515403e-002
      -1.44543322e-002 -9.68020037e-003 -3.06562632e-002
      -3.91819589e-002 -6.51232945e-003 -9.64199100e-003
      -6.83406647e-003 -6.76412974e-003 -1.15520926e-002
      -1.55129544e-002 -8.45130533e-003 -3.80029753e-002
      -8.92410334e-003 1.34555018e-002 1.33872144e-002 1.47577645e-002
      1.46091981e-002 -7.74913188e-003 -8.47927947e-003 -5.94904833e-003
      -1.71058346e-002 -2.26687491e-002 -5.06444229e-003
      -1.28408587e-002 -1.11760190e-002 -2.13609431e-002
      -2.00418215e-002 -2.00860668e-002 -1.58916637e-002
      -2.40994506e-002 -5.16662300e-002 -9.19693895e-003
      -9.63148754e-003 -1.17690321e-002 -2.40022000e-002
      -2.57719904e-002 -2.80114785e-002 -1.75586622e-002
      -5.13751730e-002 -3.54062468e-002 -5.43354917e-003
      -8.31584726e-003 -7.59953819e-003 -1.07991435e-002
      -6.09490694e-003 -9.25612822e-003 -6.94959611e-003
      -3.72818783e-002 -5.55521762e-003 -2.04289542e-003
      -7.72301434e-003 -4.20635100e-003 -4.81074117e-002
      -1.54578621e-002 -1.77541599e-002 -1.02974642e-002
      -1.29238348e-002 -4.18492546e-003 -1.78548973e-004
      -4.59182920e-004 -2.05685923e-004 -2.00045500e-002
      -2.12465599e-002 -2.13026386e-002 -1.53468670e-002
      -9.23490338e-003 -1.75687596e-002 -2.02513183e-003
      -4.08575684e-003 -3.62947281e-003 -2.84772180e-002
      -5.42198028e-003 -6.90498808e-003 -6.03530370e-003
      -1.76754873e-002 -6.89256331e-003 -5.39270276e-003
      -1.26031013e-002 -1.03026573e-002 -2.00049356e-002
      -9.85474512e-003 -1.12461960e-002 -5.54483663e-003
      -6.68027857e-003 -1.13013643e-003 -2.93412158e-004
      -7.39110808e-004 -3.85993219e-004 -2.81566009e-002
      -2.49940865e-002 -2.48737335e-002 -1.12943854e-002
      -1.88844639e-003 -1.18621867e-002 -7.79620041e-006
      -1.82595340e-005 -2.19510512e-005 -2.60371156e-003
      -5.13238600e-003 -5.92877669e-003 -6.68419944e-003
      -1.66971292e-002 -2.54145800e-003 -6.65667327e-003
      -1.53388064e-002 -1.41542442e-002 -2.88871080e-002
      -1.20863291e-002 -1.17199002e-002 -4.72501805e-003
      -2.27155513e-003 -2.76477338e-004 -1.23429680e-004
      -2.18929767e-004 -1.79268915e-004 -1.74113084e-003
      -1.52208912e-003 -3.54960421e-003 -1.93874235e-003
      -7.70909421e-004 -1.42593691e-002 0. 0. 0. -2.01956090e-003
      -4.42508794e-003 -6.06476702e-003 -6.13344414e-003
      -1.73338838e-002 -1.09454812e-002 0. 0. 0. 9.71731544e-003
      -1.02310469e-002 7.63306953e-003 5.35706477e-003 -1.42838974e-002
      -2.71022017e-003 0. 0. 0. -7.67229008e-004 -2.95447488e-003
      -4.97166393e-003 -4.49953508e-003 -4.58898349e-003
      -4.59222449e-003 0. 0. 0. -8.82601307e-004 -2.89085880e-003
      -4.97166393e-003 -4.97166393e-003 -4.97166393e-003
      -2.21701036e-003 -1.44498725e-003 -1.78977789e-003
      -1.75070530e-003 -1.86941179e-003 -8.11457634e-003
      -4.97299945e-003 -4.38206131e-003 -3.86046106e-003 2.02919520e-003
      -2.96588708e-003 -3.54235782e-003 -3.67984502e-003
      -3.42831993e-003 -7.78016285e-004 -8.91196658e-004
      -2.71475897e-003 -5.11702790e-004 -6.58121752e-003 0. 0. 0.
      -2.15291721e-003 -5.03784977e-003 -6.54710876e-003
      -6.54858118e-003 -6.67477725e-003 -5.63191669e-003 0. 0. 0.
      -1.49079284e-003 -3.26100504e-003 -5.25441067e-003
      -3.96322692e-003 -9.51338187e-003 -9.24085453e-003 1.37300324e-002
      3.06950905e-003 2.14892440e-002 4.71316576e-002 -6.21799706e-003
      -9.36483871e-003 -6.25201967e-003 -1.98691264e-002
      -5.73316813e-002 -1.41729824e-002 -1.78406984e-002
      -1.65673923e-002 -9.76120029e-003 -8.35131016e-003
      -1.01644462e-002 -7.55249150e-003 -5.37440069e-002
      -3.29101346e-002 -8.35080352e-003 -1.74565297e-002
      -1.06927957e-002 4.46251072e-002 1.43845435e-002 5.07594878e-003
      8.40173010e-003 -2.59614438e-002 -4.88907918e-002 -1.86745226e-002
      -2.34986097e-002 -2.31371149e-002 -7.61936652e-003
      -1.79366360e-003 -3.35902930e-003 -2.02012225e-003
      -4.47117835e-002 -5.16007580e-002 -1.36613734e-002
      -1.35806119e-002 -1.78007968e-002 -1.64917875e-002
      -1.29984356e-002 -1.76887456e-002 -9.61573515e-003
      -4.53486815e-002 -3.00016291e-002 -6.52166316e-003
      -9.22671240e-003 -9.45002306e-003 -1.37142856e-002
      -9.56000108e-003 -1.21646905e-002 -8.28326307e-003
      -3.41870375e-002 -6.17005378e-002 -1.74012631e-002
      -2.01055873e-002 -2.17809249e-002 -1.90372244e-002
      -1.30312629e-002 -1.54980514e-002 -8.42097681e-003
      -5.89283705e-002 -4.96146269e-002 -1.23863313e-002
      -2.24835295e-002 -2.05092300e-002 -2.12220661e-002
      -1.36864297e-002 -1.63717028e-002 -1.02007864e-002
      -5.14719673e-002 -2.33839303e-002 -8.86717625e-003
      -1.46658560e-002 -1.67732816e-002 -3.38719860e-002
      -1.47245508e-002 -1.57301351e-002 -9.34218056e-003
      -3.11903730e-002 -2.16115732e-002 -9.39687341e-003
      -1.81696080e-002 -1.60629191e-002 -1.28631517e-002
      -2.29448802e-003 -2.83407210e-003 -2.46056914e-003
      -1.99151337e-002 -4.60399650e-002 -1.12842713e-002
      -1.83493495e-002 -1.82978194e-002 -2.82807592e-002
      -2.26365104e-002 -2.55005285e-002 -1.40196579e-002
      -5.03932387e-002 -1.52273802e-002 -8.03030445e-004
      -9.05180117e-004 -1.07769947e-003 -3.70505033e-003
      -6.50910614e-003 -1.03821466e-002 -4.02719993e-003
      -2.19934378e-002 -1.83478892e-002 -2.64374316e-002
      -3.13231461e-002 -3.10921147e-002 -2.53940206e-002
      -4.31149267e-004 -7.81891227e-004 -8.83579487e-004
      -1.52671915e-002 -1.57832706e-004 -3.51882365e-004
      -5.87756629e-004 -3.34843848e-004 -7.55091256e-004
      -9.60671332e-006 -4.35285328e-005 -3.98643715e-005
      -1.69027902e-004 -4.37539862e-003 -1.32111064e-003
      -1.74201746e-003 -1.94962218e-003 -2.99225398e-003
      -6.02354849e-005 -1.04399051e-005 -9.55403876e-003
      -1.54845361e-002 -4.08735514e-006 -7.65360994e-007
      -1.01197806e-007 0. -1.85048421e-007 0. 0. 0. -2.38362986e-006
      -1.77655974e-003 0. 0. 0. -1.15084593e-004 -5.28285978e-004
      -1.39044737e-003 -1.06492126e-003 -3.16730863e-003
      -7.53861014e-003 0. 0. 0. -1.23548380e-003 -5.81147196e-003
      -7.53861014e-003 -7.53861014e-003 -7.53861014e-003
      -1.43027378e-007 0. 0. 0. -9.05036188e-008 0. 0. -2.38084709e-007
      -3.21822483e-007 -6.66630513e-005 0. 0. 0. -6.99773727e-006
      -3.04334371e-005 -4.99542002e-005 -6.94206828e-005
      -1.30839355e-004 -4.30603884e-003 0. 0. 0. -8.19922832e-004
      -2.73915310e-003 -5.41454693e-003 -4.79692919e-003
      -5.41454693e-003 -5.41454693e-003 0. 0. 0. -1.37564971e-003
      -3.88674275e-003 -5.41454693e-003 -5.41454693e-003
      -5.41454693e-003 -2.96105543e-004 0. 0. 0. -4.03399135e-005
      -1.98066511e-004 -3.53019655e-004 -3.50799732e-004
      -6.88027299e-004 -2.71395640e-003 0. 0. 0. -2.57397740e-004
      -1.06330123e-003 -2.04852014e-003 -1.66630617e-003
      -4.41246992e-003 -2.76971012e-002 3.47335450e-003 -1.79118768e-004
      3.27856396e-003 3.42225395e-002 2.54890136e-003 -1.67183171e-003
      4.96481592e-003 -3.31584997e-002 -5.32965809e-002 -2.18479130e-002
      -2.38707867e-002 -2.30302792e-002 -1.35366442e-002
      -4.23224457e-003 -3.72125534e-003 -2.59956112e-003
      -5.07455952e-002 -3.90336327e-002 -1.16053671e-002
      -1.60562191e-002 -9.89937503e-003 3.17653194e-002 2.64163800e-002
      2.67908778e-002 2.86151525e-002 -2.08636820e-002 -5.80742769e-002
      -1.99220628e-002 -2.34295372e-002 -2.22314391e-002
      -1.56527236e-002 -8.71735439e-003 -7.51540670e-003
      -3.66297388e-003 -4.90721278e-002 -5.62452637e-002
      -2.62005534e-002 -2.63885465e-002 -2.68438291e-002
      -1.43718310e-002 -6.70678774e-003 -6.46790722e-003
      -3.16661852e-003 -5.19008376e-002 -3.64167131e-002
      -1.30394483e-002 -1.86006408e-002 -1.67672336e-002
      -1.30007053e-002 -3.62826907e-003 -5.62337972e-003
      -2.70006270e-003 -3.42140645e-002 -5.83076589e-002
      -2.31977031e-002 -3.22718844e-002 -3.26006860e-002
      -2.27314793e-002 -1.70578640e-002 -1.71150453e-002
      -1.30246021e-002 -4.72042337e-002 -2.84218881e-002
      -9.33243334e-003 -1.31087201e-002 -1.16415387e-002
      -1.08488379e-002 -3.10772122e-003 -3.27337976e-003
      -1.43762107e-003 -2.58348025e-002 -2.87698917e-002
      -1.61132980e-002 -2.01476794e-002 -1.77274160e-002
      -2.41842307e-002 -1.47972209e-002 -1.84673015e-002
      -1.14895748e-002 -2.78457347e-002 -4.93460894e-003
      -1.53276627e-003 -3.17156478e-003 -2.71671661e-003
      -1.64353419e-002 -1.23546971e-002 -1.58503912e-002
      -8.19938816e-003 -9.37975477e-003 -2.63435766e-002
      -1.90209579e-002 -2.68818066e-002 -2.49323603e-002
      -2.72090212e-002 -1.68810207e-002 -1.91971008e-002
      -1.16991540e-002 -2.69531682e-002 -1.53296012e-002
      -1.05629629e-002 -1.79498084e-002 -1.60100162e-002
      -2.65561938e-002 -2.14784890e-002 -2.18636598e-002
      -1.32783754e-002 -1.79785434e-002 -5.32129139e-004
      -1.24962104e-003 -1.87706761e-003 -3.98632232e-003
      -3.80071253e-002 -1.43484371e-002 -1.17977373e-002
      -6.44931570e-003 -1.60961307e-003 0. 0. 0. 0. 0. 0. 0. 0. 0.
      -3.11753061e-003 -9.41569731e-003 -1.68754179e-002
      -2.04554964e-002 -4.76940386e-002 -4.05013077e-002
      -4.00609486e-002 -2.22288910e-002 -1.09873572e-002 0. 0. 0. 0. 0.
      0. 0. 0. 0. 0. 0. 0. 0. 0. 0. 0. 0. 0. 0. 0. 0. 0. 0. 0. 0. 0. 0.
      0. 0. 0. 0. 0. 0. 0. 0. 0. 0. 0. 0. 0. 0. 0. 0. 0. 0.
      1.40256770e-006 1.45566696e-006 2.60351294e-006 0. 4.37586004e-006
      0. 0. 0. 1.40256770e-006 1.98444608e-003 3.69130936e-003
      2.81041185e-003 1.34211476e-003 -1.31611538e-004 -1.82695221e-004
      -3.96216346e-004 -2.02161624e-004 1.25007704e-004 1.09700591e-003
      3.86679894e-003 3.89974797e-003 3.15604522e-003 3.45217460e-003 0.
      0. 0. 2.79209926e-004 -3.55440163e-004 7.58258248e-005
      -5.33426274e-003 -7.59928767e-003 1.43964920e-004 0. 0. 0.
      -6.41856156e-003 -3.15896645e-002 -1.92525666e-002
      -2.13740934e-002 -2.24028677e-002 3.91210690e-002 3.13913450e-002
      2.53933799e-002 2.94869784e-002 -1.12478873e-002 -3.61263454e-002
      -2.34285500e-002 -2.78246608e-002 -2.67405026e-002
      -3.18658235e-003 5.40178875e-003 7.03344541e-003 8.02021753e-003
      -2.97071803e-002 -2.46023927e-002 -1.85365789e-002
      -2.20488869e-002 -2.33192127e-002 5.67660853e-002 6.36400133e-002
      6.29813671e-002 6.57978728e-002 1.13792149e-002 -3.69875766e-002
      -1.84084214e-002 -1.96261965e-002 -1.97374634e-002 1.66688282e-002
      1.85410343e-002 1.70620717e-002 1.90387145e-002 -1.98189504e-002
      -4.54227440e-002 -3.26937139e-002 -3.38106379e-002
      -3.29915881e-002 -2.18520425e-002 -5.04617952e-003
      -4.38100984e-003 -7.70623330e-004 -3.78844105e-002
      -2.66432501e-002 -2.48937681e-002 -3.92394513e-002
      -3.37623693e-002 -3.50883640e-002 -2.27292883e-003
      -2.41136784e-003 -1.60447683e-003 -2.53643095e-002
      -2.66072769e-002 -1.41610354e-002 -1.53174736e-002
      -1.56064257e-002 2.11623218e-002 2.91295610e-002 3.51100340e-002
      3.57356146e-002 -8.63704408e-005 -1.68322064e-002 -1.30273541e-002
      -2.11928207e-002 -2.02199463e-002 -3.62486728e-002
      -4.80650319e-003 -6.30625291e-003 -3.95989604e-003
      -1.36543550e-002 -3.14345807e-002 -2.60690525e-002
      -3.06388922e-002 -3.00512612e-002 -3.97081040e-002
      -1.15027549e-002 -1.30059933e-002 -8.63955822e-003
      -2.84532532e-002 -8.42733681e-003 -1.27002085e-002
      -2.54894253e-002 -2.19223946e-002 -3.26603018e-002
      -1.01188309e-002 -1.14378072e-002 -6.41291915e-003
      -7.37564219e-003 -7.90601783e-003 -1.29039735e-002
      -2.54489072e-002 -2.34556366e-002 -4.28387523e-002
      -7.79992761e-003 -7.95194414e-003 -4.88496898e-003
      -5.96081093e-003 -1.22590829e-003 -7.63922650e-003
      -1.64865535e-002 -1.47984447e-002 -3.42203267e-002
      -3.55336652e-003 -3.52032785e-003 -2.10285047e-003
      -9.25490225e-004 -1.41597888e-003 -1.47281121e-002
      -3.23702693e-002 -3.31451148e-002 -6.27685264e-002
      -1.35472137e-002 -1.49187939e-002 -6.55917916e-003
      -2.15141824e-003 0. 0. 0. 0. 0. 0. 0. 0. 0. -5.16701897e-004
      -6.38133055e-003 -1.50538404e-002 -1.30347693e-002
      -2.08324585e-002 -1.37349963e-003 -1.38859428e-003
      -5.75549842e-004 -4.12073394e-004 6.08144328e-004 6.29543560e-004
      3.10590607e-004 1.01549253e-004 8.01669812e-005 0. 0. 0.
      2.01644711e-004 2.40038673e-007 0. 0. 0. 0. 0. 0. 0.
      2.40038673e-007 9.79703735e-004 2.14803242e-003 2.09517428e-003
      1.30187033e-003 7.74734071e-004 0. 0. 0. 3.55778058e-004
      9.86670610e-004 9.84124141e-004 1.01599714e-003 5.98039711e-004
      1.53508750e-004 0. 0. 0. 4.11483721e-004 -1.38950115e-002
      7.93117005e-003 1.55060925e-002 9.63078626e-003 2.97332238e-002 0.
      0. 0. 8.04667454e-003 1.99534767e-003 6.60822075e-003
      3.76987224e-003 4.41811280e-003 1.25602465e-002 0. 0. 0.
      7.25444930e-004 2.31837924e-003 1.55287504e-003 -2.78998865e-003
      -1.65600074e-003 9.96526424e-003 0. 0. 0. 3.13373026e-003
      -2.03231443e-003 1.20463045e-002 4.51598968e-003 1.97787699e-003
      9.42502916e-003 0. 0. 0. 5.60044497e-003 -6.12524804e-003
      8.39266460e-003 5.74030401e-003 1.11929560e-003 1.31183106e-003 0.
      0. 0. 3.02999956e-003 -2.17617229e-002 -1.29534379e-002
      -1.34928916e-002 -1.30246561e-002 2.51027215e-002 3.32926959e-002
      3.78396995e-002 3.88493314e-002 -5.04857209e-003 -1.76161211e-002
      -1.30038448e-002 -1.38408095e-002 -1.39629031e-002 1.60436258e-002
      3.27161737e-002 3.71386223e-002 3.73403244e-002 4.60546138e-003
      -8.73048697e-003 -3.73364124e-003 -4.79194010e-003
      -4.84747626e-003 1.08710732e-002 2.39146259e-002 2.77369879e-002
      2.76790261e-002 6.44662324e-003 1.33135552e-002 -5.52165601e-003
      -5.89110423e-003 -7.36074336e-003 1.43382456e-002 4.20706831e-002
      4.62559424e-002 4.72191162e-002 2.95652971e-002 -1.73002426e-002
      -1.29675157e-002 -1.31567372e-002 -1.36027997e-002
      -5.55572612e-003 1.35101369e-002 1.77528560e-002 1.84792858e-002
      -2.43423227e-003 -1.45604936e-002 -3.11083347e-003
      -5.80333686e-003 -7.25735864e-003 -7.21581206e-002
      -2.00747401e-002 -1.46351540e-002 -4.02735034e-003
      -1.06137432e-002 3.93306687e-002 -2.12589698e-003 -2.03473307e-003
      -2.48087244e-003 2.31996886e-002 5.46327420e-002 6.02971427e-002
      6.18467964e-002 4.85958755e-002 1.86553001e-002 -3.74802097e-004
      -4.09243949e-004 -4.86589561e-004 -5.43165579e-002
      -1.12244720e-002 -1.01339836e-002 6.56841695e-003 3.35104913e-002
      -6.87133800e-003 -1.96983665e-003 -3.79292690e-003
      -4.49750107e-003 -4.84714285e-002 -1.62154622e-002
      -1.36757446e-002 -7.63668213e-003 -1.07362997e-002
      -1.19381584e-003 -1.02946500e-003 -2.00411119e-003
      -2.22111307e-003 -3.95985916e-002 -5.45518007e-003
      -4.59835911e-003 -2.57008360e-003 -1.98572711e-003 2.37858742e-002
      5.54607250e-004 6.18041260e-004 8.87655071e-004 1.82626117e-002
      -1.02115271e-003 -1.17642879e-002 -2.38057110e-003 2.17045825e-002
      1.34270005e-002 1.45596601e-002 1.40578598e-002 1.42894061e-002
      -6.53420528e-003 -4.02695611e-002 -4.45413142e-002
      -2.56042257e-002 1.94330676e-003 2.22509450e-004 -6.97561118e-005
      -2.70825985e-004 -2.82711204e-004 -1.18396441e-002
      -9.80866607e-004 -7.20027427e-004 -4.44962352e-004 5.58487773e-006
      3.72917671e-003 2.52941949e-003 2.70149391e-003 1.31509395e-003
      1.42623670e-004 0. 0. 0. 1.79880171e-003 3.85020068e-003
      1.43117877e-002 1.65639501e-002 1.10758878e-002 -1.46687655e-002
      -3.24875116e-002 -3.18193920e-002 -2.80441586e-002
      -1.20625729e-002 1.08209448e-002 1.93330999e-002 2.30057985e-002
      9.62055288e-003 -3.97717906e-003 -3.64757865e-003 -2.39385385e-003
      -4.29145759e-003 1.97104104e-002 6.03999384e-003 5.82928164e-003
      5.48394397e-003 1.94474100e-003 5.21859271e-004 0. 0. 0.
      3.41466698e-003 -1.35621196e-003 1.10602779e-002 8.14956706e-003
      1.06431742e-003 7.23448256e-003 0. 0. 0. 6.51592948e-003
      -2.94046476e-003 1.15384273e-002 1.44201396e-002 5.19186782e-004
      -2.38715541e-002 -7.95910694e-003 -3.64169711e-003
      -9.15969256e-003 3.74683365e-003 -4.16504126e-003 5.36493212e-003
      1.10724904e-002 1.66672270e-003 -2.02738978e-002 -4.48903581e-003
      -2.16583093e-003 -4.87993797e-003 -4.76121996e-003 1.01306327e-002
      1.08612403e-002 1.14563694e-002 1.01948436e-002 1.23909656e-002 0.
      0. 0. 9.49619710e-003 6.11051219e-003 3.34680523e-003
      -2.98373960e-003 -4.15484840e-003 1.20449988e-002 0. 0. 0.
      1.39984647e-002 -1.36564337e-002 7.71148922e-003 3.38176102e-003
      -4.02007578e-003 -8.98783968e-004 -2.37233078e-004
      -1.11226422e-004 -2.25831725e-004 -8.33524857e-003
      -8.46680906e-003 -1.47852693e-002 -1.62338391e-002
      -1.90070514e-002 -5.64740878e-003 0. 0. 0. -1.00177322e-002</_>
    <_>
      1.45454491e-002 2.18941197e-002 1.95067488e-002 1.36826066e-002
      1.59421226e-003 -1.10447370e-002 -1.05199022e-002 -9.72025003e-003
      3.27747944e-003 1.93830412e-002 3.47743556e-002 2.94927526e-002
      2.40561571e-002 -9.14243795e-003 -2.78139189e-002 -2.77551971e-002
      -2.54889261e-002 -1.34544587e-003 -6.55764341e-003 3.01876795e-002
      2.59115100e-002 2.88249906e-002 1.63984951e-002 -2.97780056e-003
      -2.90393597e-003 -2.76217749e-003 -1.27271824e-002
      -1.97742581e-002 1.81614757e-002 1.30625973e-002 1.12135811e-002
      -1.60944229e-003 -2.34491937e-002 -2.47616246e-002
      -2.27484312e-002 -3.84009778e-002 4.27838936e-002 4.85451296e-002
      4.77957278e-002 4.72302251e-002 6.53275289e-003 -2.25875378e-002
      -2.33449750e-002 -1.96103901e-002 2.12211385e-002 2.57014427e-002
      2.60177702e-002 2.45284792e-002 1.82331633e-002 -1.81410816e-002
      -2.27811951e-002 -2.22337563e-002 -1.79443508e-002 5.25508774e-003
      -2.58561447e-002 9.92610399e-003 4.28124424e-003 9.22968204e-004
      -1.45012606e-002 -2.70251334e-002 -2.92512011e-002
      -2.72885952e-002 -3.96848172e-002 -2.15786640e-002
      -6.04022620e-003 -1.15517639e-002 -1.24049177e-002
      -3.02238949e-002 -1.83261000e-002 -2.05966830e-002
      -1.65144205e-002 -2.75536850e-002 1.09067596e-002 1.64120346e-002
      1.62848327e-002 1.23012848e-002 6.93718018e-003 -2.96726525e-002
      -2.76623927e-002 -1.98725946e-002 1.09212305e-002 6.40085712e-003
      1.83749525e-003 1.95972854e-003 2.41362839e-003 1.40201729e-002
      -4.18578321e-003 4.92004387e-004 7.41365785e-003 9.88712534e-004
      -1.02472017e-002 -6.07871544e-003 -9.94104799e-003
      -1.04333535e-002 -2.18391065e-002 -1.58333313e-002
      -1.76144503e-002 -1.31285973e-002 -1.29207987e-002
      -7.72831030e-003 -4.71548177e-004 -8.11351172e-004
      -1.08820561e-003 -1.03660300e-002 -1.08693102e-002
      -1.16101913e-002 -1.01147117e-002 -1.19203553e-002
      -1.41831487e-003 1.26651220e-003 1.66513282e-003 1.87866553e-003
      -1.95344235e-003 -1.05491579e-002 -1.86294259e-003 1.21985201e-003
      -5.07901888e-003 3.53637524e-003 1.71767533e-004 1.55282352e-004
      2.14829197e-004 3.99934454e-003 8.12741462e-003 1.71172749e-002
      2.02072989e-002 2.44456134e-003 -1.50829758e-002 0. 0. 0.
      -7.42511870e-003 -1.36071201e-002 -1.31861186e-002
      -1.22665651e-002 -1.76823419e-002 -2.12967601e-002 0. 0. 0.
      -4.24525980e-003 -1.10078566e-002 -8.69413000e-003
      -7.85703119e-003 -1.76672619e-002 1.47047115e-003 -2.86093360e-004
      -3.15418554e-004 -4.17545962e-004 3.62519384e-003 1.02600493e-002
      1.71910711e-002 1.70917064e-002 2.66202283e-003 1.01424186e-002
      -8.17692664e-004 -7.32689863e-004 -1.08044280e-003 1.19827343e-002
      1.47805912e-002 1.92459486e-002 2.27684323e-002 1.26718963e-002
      -2.09650341e-002 -1.93500717e-004 -1.66184152e-004
      -2.54502113e-004 -9.26259533e-003 -1.20819341e-002
      -9.01556946e-003 -8.46116710e-003 -2.05808841e-002
      -1.19049195e-002 -2.62109999e-004 -2.27913755e-004
      -3.55353288e-004 3.83793995e-005 8.12549551e-004 3.22224502e-003
      4.11143899e-003 -8.14198796e-003 9.52811167e-003 -1.53277550e-004
      -1.08660010e-004 -1.81180832e-004 2.03129370e-003 3.10784229e-003
      8.46462697e-003 7.81306811e-003 1.15923630e-002 6.98169041e-003
      -2.74407794e-003 -2.65086745e-003 -3.52118933e-003 2.79965554e-003
      6.96699740e-003 1.02151232e-002 1.03010722e-002 9.22793988e-003
      -7.05447141e-003 -5.35713807e-005 -3.14160352e-005
      -5.78725521e-005 -4.65035060e-004 -8.01270420e-004 6.51220442e-004
      1.70109991e-003 -7.77380774e-003 -7.84271955e-003 -1.47045427e-003
      -1.93341437e-003 -2.66349781e-003 1.95957301e-003 2.51598516e-003
      4.72741388e-003 5.05649764e-003 -3.80753353e-003 3.41791497e-003
      3.98291908e-002 3.24001908e-002 3.77827100e-002 3.92381027e-002
      -4.67330310e-003 -5.35244122e-003 -3.99994990e-003
      -1.76563952e-002 -3.45379934e-002 2.66105216e-003 -3.68432095e-003
      -3.95733165e-003 -6.15851081e-004 -6.83599850e-003
      -7.97578320e-003 -7.28034135e-003 -4.11490239e-002
      -2.92447116e-002 1.62371695e-002 8.87541007e-003 1.85167938e-002
      3.48594747e-002 -1.04297558e-002 -1.21592665e-002 -8.72420706e-003
      -4.08756658e-002 -4.22036797e-002 1.69500429e-003 -1.47637460e-004
      1.22173375e-003 -6.76618540e-004 -1.55353565e-002 -1.65432189e-002
      -1.40565978e-002 -4.56776246e-002 -3.52453142e-002 7.83779845e-003
      5.55056613e-003 4.17824427e-004 3.50826094e-003 -6.79891510e-003
      -7.62200262e-003 -7.16027850e-003 -4.45679016e-002
      -2.98763085e-002 -1.24099413e-002 -1.69813260e-002
      -1.72472894e-002 -1.20782582e-002 -7.90025573e-003
      -8.56324285e-003 -8.36648326e-003 -3.04718707e-002
      -3.31260078e-002 -1.16036972e-003 -1.75644632e-003
      -1.60775986e-003 -6.36867154e-003 -1.52980676e-002
      -1.72419846e-002 -1.38422744e-002 -3.85010913e-002
      -1.57424100e-002 -9.33120551e-004 -1.34921016e-003
      -1.18565583e-003 -2.53160414e-003 -4.75762784e-003
      -6.67381613e-003 -5.83655853e-003 -1.90425906e-002
      -2.67644096e-002 -1.92773864e-002 -2.15201881e-002
      -2.15562563e-002 -2.53675729e-002 -1.11156655e-002
      -1.25145772e-002 -1.15626045e-002 -2.75233481e-002
      -3.65592772e-003 -3.28481733e-003 -4.65289131e-003
      -3.85213061e-003 -1.43129621e-002 -1.01963812e-002
      -1.06422286e-002 -8.41697119e-003 -3.32543044e-003
      -1.32144485e-002 -5.23952581e-003 -7.47933611e-003
      -5.75247267e-003 -7.83226080e-003 -5.30392816e-003
      -6.43894682e-003 -6.26643887e-003 -1.30260428e-002
      -8.88426974e-003 -6.97292434e-003 -9.76708438e-003
      -6.75339345e-003 -1.17964856e-002 -2.85501452e-003
      -3.31809698e-003 -3.11180507e-003 -7.70326331e-003
      -2.48737121e-003 -1.67401019e-003 -2.59045861e-003
      -2.71862489e-003 -1.90215837e-002 -1.11302501e-002
      -1.03619164e-002 -9.10141226e-003 -4.70798695e-003
      -9.47947893e-003 0. 0. 0. -4.71103471e-003 -1.19843548e-002
      -1.29844723e-002 -1.11198453e-002 -1.25232041e-002
      -1.63976871e-003 -3.53422016e-003 -5.45318658e-003
      -4.26295353e-003 -1.59598812e-002 -1.35529716e-003
      -8.88626324e-004 -9.15308308e-004 -1.05707615e-003
      -1.17839361e-003 -4.45456124e-007 -1.56235626e-006
      -3.34089668e-006 -7.48789986e-004 -3.72222625e-003
      -5.59896883e-003 -4.95831203e-003 -3.54059204e-003
      -6.64367946e-003 0. 0. 0. -2.12966534e-003 -6.82341959e-003
      -8.33102968e-003 -8.12532287e-003 -9.00560338e-003 4.90595913e-003
      0. 0. 0. 5.28639555e-003 -2.92746699e-003 1.38205430e-003
      2.96391081e-003 3.62227857e-003 -4.27486142e-003 0. 0. 0.
      -1.35359564e-003 -5.92512870e-003 -6.79710181e-003
      -6.78911805e-003 -6.98088715e-003 -7.16573931e-003 0. 0. 0.
      -1.41807704e-003 -6.53147744e-003 -6.88382657e-003
      -6.87495200e-003 -7.19262939e-003 1.01391028e-003 0. 0. 0.
      -1.25746097e-004 -1.00561790e-003 1.08779687e-003 1.14277366e-003
      2.86161480e-003 7.32159289e-003 0. 0. 0. 3.95037327e-003
      8.54704250e-003 1.05631808e-002 9.41632967e-003 9.15516727e-003
      -1.07132681e-002 0. 0. 0. -3.75524885e-003 -9.98403970e-003
      -9.98067483e-003 -1.00153526e-002 -1.08522000e-002
      -5.21448813e-003 0. 0. 0. -1.13265729e-003 -2.45825411e-003
      -3.52138281e-003 -3.72150238e-003 -8.78939778e-003
      -2.96840491e-003 2.67445929e-002 2.27477923e-002 3.15659232e-002
      4.17679697e-002 -6.88697677e-003 -7.55502330e-003 -5.88293141e-003
      -1.91988107e-002 -4.08112668e-002 -3.56733776e-003
      -6.52017351e-003 -5.41849295e-003 -1.53254867e-002
      -2.09622905e-002 -2.32494511e-002 -1.70031022e-002
      -4.27361168e-002 -3.17387171e-002 1.77124247e-003 -3.87778855e-003
      2.21475982e-003 4.82495539e-002 6.38724538e-003 -3.97553714e-003
      1.30787620e-003 -2.52879560e-002 -5.04725240e-002 -1.74892936e-002
      -2.19422858e-002 -2.06216890e-002 -2.42037568e-002
      -8.87558237e-003 -1.28859263e-002 -8.90984945e-003
      -4.50241454e-002 -3.17764096e-002 -1.06907310e-002
      -1.16240177e-002 -1.24667743e-002 -3.17426361e-002
      -3.60044390e-002 -3.95768024e-002 -2.99983751e-002
      -3.97563279e-002 -7.57521624e-003 -6.56859949e-004
      -1.43606158e-003 -1.47359725e-003 -1.12995030e-002
      -7.87480827e-003 -9.23151337e-003 -8.27466976e-003
      -1.24801220e-002 -4.19935659e-002 -2.40747705e-002
      -3.06464490e-002 -3.14984731e-002 -3.43563892e-002
      -2.00375840e-002 -2.24929843e-002 -1.59702525e-002
      -3.19400504e-002 -1.06822420e-002 -4.76472639e-003
      -8.84606596e-003 -5.73869096e-003 -2.15208195e-002
      -9.19054076e-003 -1.13945762e-002 -8.04016273e-003
      -1.34386728e-002 -1.57921892e-002 -3.73654068e-003
      -4.75591980e-003 -3.32072540e-003 -7.70091452e-003
      -6.53743790e-003 -7.54609704e-003 -7.26861088e-003
      -1.71656627e-002 -9.52180941e-003 -2.55929329e-003
      -3.35578038e-003 -2.25539063e-003 -9.85230436e-004
      -3.27979331e-004 -5.70121454e-004 -5.47281525e-004
      -7.24007562e-003 -4.68861172e-003 -7.07016885e-003
      -7.93326925e-003 -6.08020229e-003 -1.60500556e-002
      -1.10197887e-002 -1.06306300e-002 -8.84830486e-003
      -4.18771990e-003 -4.46430522e-006 -1.35048540e-004
      -2.03759031e-004 -1.05554362e-004 -8.10437370e-004
      -1.91227795e-004 -1.46581660e-004 -1.87842248e-004
      -9.07041886e-006 -1.96832288e-002 -4.60773008e-003
      -9.86970682e-003 -1.23410933e-002 -7.84969237e-003
      -3.61557941e-005 -1.29193810e-004 -7.17409421e-005
      -1.28657343e-002 -9.27665154e-004 -2.98945474e-006
      -9.90340413e-006 -1.39855811e-005 -3.45544715e-004
      -6.91808469e-004 -1.70518283e-003 -1.93351443e-004
      -9.33848205e-004 0. 0. 0. 0. 0. 0. 0. 0. 0. 0. 0. 0. 0. 0. 0. 0.
      0. 0. -2.71292869e-003 0. 0. 0. -3.72364098e-004 -1.81450997e-003
      -2.68161390e-003 -2.40228605e-003 -5.77895017e-003
      -1.01637654e-002 0. 0. 0. -2.36721896e-003 -1.01637654e-002
      -1.01637654e-002 -1.01637654e-002 -1.01637654e-002 0. 0. 0. 0. 0.
      0. 0. 0. 0. -1.96309746e-004 0. 0. 0. -1.57114482e-005
      -1.06822823e-004 -1.85301818e-004 -1.61082964e-004
      -4.39782336e-004 -7.02099502e-003 0. 0. 0. -1.24550553e-003
      -5.33321686e-003 -7.10354419e-003 -7.09227985e-003
      -7.12391175e-003 -7.59960944e-003 0. 0. 0. -1.45000475e-003
      -6.51735300e-003 -7.63988448e-003 -7.63988448e-003
      -7.63988448e-003 -8.63024266e-004 0. 0. 0. -8.64802932e-005
      -5.84771391e-004 -8.22252594e-004 -9.48777306e-004
      -1.81921758e-003 -4.15611546e-003 0. 0. 0. -4.68882557e-004
      -2.87728058e-003 -3.52832349e-003 -4.21091774e-003
      -7.08503928e-003 -2.97497530e-002 1.08884706e-003 -5.08458586e-003
      -1.66330242e-003 4.06358354e-002 7.98791926e-003 4.06034663e-003
      6.21360494e-003 -3.50049809e-002 -4.52747457e-002 -1.78952441e-002
      -2.29467638e-002 -2.01462656e-002 -7.70555204e-003
      -2.14945688e-003 -3.78877856e-003 -2.69874488e-003
      -4.15381938e-002 -3.63296419e-002 -6.98574819e-003
      -1.13656940e-002 -8.48835241e-003 3.34716327e-002 2.48328354e-002
      2.16342807e-002 2.30694767e-002 -1.71963349e-002 -4.77829576e-002
      -1.11060152e-002 -1.48341656e-002 -1.37445545e-002
      -8.52654781e-003 -5.31226397e-003 -8.77689384e-003
      -4.56588017e-003 -4.63761017e-002 -3.81101184e-002
      -1.46935610e-002 -1.77470986e-002 -1.67212300e-002
      -1.71522666e-002 -3.77857871e-003 -4.36670054e-003
      -3.31788533e-003 -3.17896269e-002 -1.62537787e-002
      -6.54609408e-003 -1.01035656e-002 -7.34116696e-003
      -1.10577811e-002 -2.23970879e-003 -2.05519842e-003
      -1.62102736e-003 -1.36783086e-002 -5.80239594e-002
      -1.61087196e-002 -2.06370689e-002 -2.03679036e-002
      -2.52964348e-002 -1.64047685e-002 -2.04099417e-002
      -1.30427815e-002 -5.66509701e-002 -3.26119624e-002
      -4.43238113e-003 -5.79280918e-003 -6.10938529e-003
      -2.01326273e-002 -1.33998524e-002 -1.50902765e-002
      -9.16459598e-003 -3.31711546e-002 -1.74012762e-002
      -1.44804139e-002 -1.71031225e-002 -1.76981091e-002
      -2.04754137e-002 -4.78677731e-003 -4.42912895e-003
      -2.44738464e-003 -1.27524985e-002 -8.26563337e-006
      -2.04723910e-004 -3.35815828e-004 -1.77397422e-004
      -3.91141803e-004 -1.17323789e-005 -1.53672936e-005
      -6.53935422e-006 -7.85587417e-006 -2.89233625e-002
      -1.45369326e-003 -1.57109217e-003 -1.33728352e-003
      -2.72471718e-002 -2.53682975e-002 -2.53682975e-002
      -2.46698260e-002 -2.72829160e-002 -1.14930270e-004
      -6.29359056e-006 -1.27490930e-005 -5.58535385e-006
      -2.44537252e-003 -1.32597040e-003 -1.01211236e-003
      -7.06314109e-004 -3.38426500e-004 0. 0. 0. 0. 0. 0. 0. 0. 0. 0. 0.
      0. 0. 0. 0. 0. 0. 0. 0. 0. 0. 0. 0. 0. 0. 0. 0. 0. 0. 0. 0. 0. 0.
      0. 0. 0. 0. 0. 0. 0. 0. 0. 0. 0. 0. 0. 0. 0. 0. 0. 0. 0. 0. 0. 0.
      0. 0. 0. 0. 0. 0. 0. 0. 0. 0. 0. 0. 0. 0. 0. 0. 0. 1.19518256e-006
      1.24043049e-006 2.21855476e-006 0. 3.72884051e-006 0. 0. 0.
      1.19518256e-006 -8.38846993e-003 3.75445071e-003 3.58875631e-003
      2.18797848e-003 4.14558512e-004 -5.04893949e-004 -3.53443611e-004
      -5.13924577e-004 -1.06118470e-002 9.37063945e-004 3.24363448e-003
      3.20874993e-003 2.62891082e-003 2.91684060e-003 0. 0. 0.
      2.73518526e-004 -3.30289155e-002 -6.36168104e-003 -5.74147841e-003
      -1.04305446e-002 4.06604959e-003 0. 0. 0. -1.31295472e-002
      -4.63616662e-002 -1.93495881e-002 -2.37753037e-002
      -2.08360255e-002 3.59289981e-002 2.35068947e-002 1.85381938e-002
      2.14344207e-002 -3.54394838e-002 -5.08702472e-002 -2.36097816e-002
      -2.72277389e-002 -2.58907713e-002 -8.16219114e-003 1.91472494e-003
      2.20346660e-003 3.79207102e-003 -4.88216914e-002 -3.07072550e-002
      -1.49531607e-002 -1.85401514e-002 -1.67708974e-002 4.90728021e-002
      5.33842109e-002 5.40677905e-002 5.45253977e-002 3.54221696e-003
      -3.63903008e-002 -1.67106017e-002 -1.77470129e-002
      -1.64907873e-002 7.22629065e-003 1.31168356e-002 1.41017977e-002
      1.45352064e-002 -2.21265890e-002 -4.38796580e-002 -2.07295120e-002
      -2.27289926e-002 -2.39007715e-002 -1.85903534e-002
      -8.24986305e-003 -1.15428297e-002 -5.02002286e-003
      -3.81296612e-002 -2.28709690e-002 -1.50532266e-002
      -1.84618719e-002 -1.88963022e-002 -2.69664023e-002
      -8.46039876e-003 -1.01351654e-002 -6.35466864e-003
      -2.20978539e-002 -3.56751643e-002 -3.18899229e-002
      -3.34077068e-002 -3.40702832e-002 5.35405893e-003 1.67353842e-002
      2.24835780e-002 2.38476451e-002 -1.04779275e-002 -2.48340927e-002
      -2.86423340e-002 -2.96976231e-002 -3.09919398e-002
      -1.88757740e-002 -2.78643775e-003 -2.89713265e-003
      -2.03447556e-003 -1.51506895e-002 -1.85952112e-002
      -1.88328326e-002 -1.94454473e-002 -1.95550881e-002
      -2.17671655e-002 -1.87894702e-002 -1.87446084e-002
      -1.37455985e-002 -1.86490603e-002 -5.82019286e-003
      -5.73984464e-004 -6.84654515e-004 -1.00036012e-003
      -4.30519832e-003 -1.58497191e-003 -1.20225537e-003
      -1.03224372e-003 -6.30703662e-003 -2.03206372e-002
      -2.81149801e-002 -2.83142738e-002 -3.05965859e-002
      -2.20677704e-002 -2.51664757e-003 -2.56947288e-003
      -1.73096359e-003 -1.73500814e-002 -1.53607978e-002
      -2.34970637e-003 -2.03409279e-003 -2.93170544e-003
      -9.43513215e-003 -1.21857636e-002 -1.21458312e-002
      -8.21531937e-003 -1.53516727e-002 -3.13010579e-003 0. 0. 0.
      -4.71540523e-004 -2.03309907e-003 -1.88711274e-003
      -1.56602915e-003 -4.70387563e-003 -7.60615558e-006 0. 0. 0.
      -2.59301887e-005 -1.44673095e-005 -1.84822220e-005
      -2.07177691e-005 -3.91318717e-005 -1.61680616e-002 0. 0. 0.
      -1.65355522e-002 -1.81353763e-002 -1.81353763e-002
      -1.81353763e-002 -1.73729844e-002 1.21163022e-004 1.88952050e-004
      9.32210824e-005 3.04791283e-005 -3.11797857e-003 -1.47931615e-003
      -9.85425664e-004 -4.72970685e-004 -2.29024576e-004 4.06085299e-008
      6.94085784e-008 5.95840746e-008 3.94049238e-008 4.91992580e-008 0.
      0. 0. 3.33003740e-008 7.54930370e-004 2.04890873e-003
      1.92547066e-003 1.38311018e-003 1.16754905e-003 0. 0. 0.
      2.54740327e-004 3.42494226e-004 2.38515117e-004 2.07920632e-004
      1.57113711e-004 8.51935110e-005 0. 0. 0. 1.16720352e-004
      -1.15791121e-002 2.79340837e-002 1.46929808e-002 1.48838889e-002
      1.08722923e-002 0. 0. 0. 7.72523461e-003 2.59470218e-003
      7.01067224e-003 5.00989100e-003 4.94523114e-003 1.09645166e-002 0.
      0. 0. 5.85025118e-004 -2.79239030e-004 -7.88171683e-003
      -1.49881169e-002 -1.83414835e-002 1.64936809e-003 0. 0. 0.
      1.76920602e-003 1.78866368e-002 1.07603176e-002 6.34425436e-004
      -1.51080126e-003 1.12623964e-002 0. 0. 0. 8.95068143e-003
      -3.51810176e-003 -5.69809461e-003 -4.68382891e-003
      -8.01139232e-003 -9.02901776e-003 0. 0. 0. 9.05162841e-003
      -1.84712373e-002 -1.32539496e-002 -1.57428049e-002
      -1.70435496e-002 1.13503113e-002 2.38536522e-002 2.71061547e-002
      3.20336297e-002 -1.33931777e-003 -3.00774798e-002 -3.20641547e-002
      -3.21681388e-002 -3.45204063e-002 -2.14504963e-003 2.71403007e-002
      3.19791511e-002 3.08177583e-002 -4.72577754e-003 -8.82633589e-003
      -1.31899128e-002 -1.45543329e-002 -1.68915838e-002
      -1.53553952e-002 9.49230231e-003 1.28556862e-002 1.61188878e-002
      3.02144373e-003 -6.62269490e-003 -2.21856423e-002 -2.34742034e-002
      -2.40952019e-002 -1.04076164e-002 1.80229805e-002 2.40486935e-002
      2.72406787e-002 1.05436137e-002 -4.00519818e-002 -3.39739174e-002
      -3.54088843e-002 -3.60034518e-002 -8.50346684e-003 1.32071935e-002
      1.74089056e-002 1.63226500e-002 -1.69807337e-002 -3.52436751e-002
      -2.03853138e-002 -2.25637425e-002 -2.18322966e-002
      -6.61106640e-003 4.41483827e-003 7.19686877e-003 8.29106756e-003
      -2.27196887e-002 3.15074972e-003 -1.57970693e-002 -1.78669598e-002
      -1.92203913e-002 1.31249810e-002 4.44724113e-002 5.11877909e-002
      5.13703674e-002 1.73957814e-002 -6.28353423e-003 -1.77890733e-002
      -2.14686841e-002 -2.16682982e-002 9.83461086e-003 2.41354164e-002
      2.82559916e-002 2.83606965e-002 8.54882225e-003 -4.05340269e-002
      -1.37593821e-002 -1.53586837e-002 -1.68793686e-002
      -6.52904669e-003 -2.51645222e-003 -2.76344712e-003
      -2.66095647e-003 -2.92537902e-002 -3.48427854e-002
      -5.69926854e-003 -6.84789522e-003 -6.86663110e-003
      -1.96461696e-002 -1.99077241e-002 -2.17037164e-002
      -1.55909909e-002 -3.77128422e-002 9.50578786e-003 -1.96034629e-002
      -2.22252738e-002 -2.26204675e-002 3.74022312e-002 3.22711430e-002
      2.81569418e-002 2.74092630e-002 1.03867212e-002 1.12039670e-002
      2.98401713e-003 1.76053459e-003 5.99896419e-004 5.19945659e-003
      -1.74274538e-002 -1.91439781e-002 -9.93204210e-003 9.84594598e-003
      -2.02686470e-002 -3.85913270e-004 -5.74781618e-004
      -4.10055451e-004 -1.93562042e-002 -2.43137721e-002
      -2.41467860e-002 -1.66344810e-002 -2.79616341e-002 8.44750495e-004
      1.96650485e-003 2.17288919e-003 1.24783698e-003 -7.53398100e-003
      -5.57412999e-003 -5.03698224e-003 -3.77816567e-003
      -5.37371216e-003 1.48219457e-002 1.39061054e-002 1.50971469e-002
      1.09900776e-002 -1.67053901e-002 -5.01812547e-002 -4.97705601e-002
      -4.27000299e-002 8.18126928e-003 3.85483839e-002 5.17502949e-002
      5.34263253e-002 4.08548899e-002 -1.96776658e-004 -3.42637040e-002
      -3.44108902e-002 -2.84322985e-002 2.97442377e-002 1.11750904e-002
      6.89887349e-003 7.58314040e-003 4.23584552e-003 1.05367787e-003
      -1.81791649e-004 -1.70811341e-004 -1.46714228e-004 4.31090873e-003
      1.22200120e-002 1.63668152e-002 1.20125031e-002 3.52717750e-003
      8.22093058e-003 0. -9.11367906e-008 -8.76994903e-008
      1.09180100e-002 3.07554472e-003 2.37711910e-002 2.27348022e-002
      1.03129921e-002 -7.63434265e-003 -8.27923231e-003 -8.79037660e-003
      -7.43821962e-003 8.01062491e-003 -8.43173731e-003 -1.11547317e-002
      -1.05161965e-002 -1.65272765e-002 -1.46344909e-002
      -6.49253430e-004 -5.02104347e-004 -5.82113222e-004
      -1.44084580e-002 1.60247311e-002 9.20665916e-003 7.14535126e-003
      5.45718800e-003 9.70735494e-003 0. 0. 0. 1.88532025e-002
      2.98220385e-003 -7.76751572e-003 -8.13008100e-003 -1.51453847e-002
      3.21162236e-003 7.17685034e-005 9.50408285e-005 9.61648475e-005
      1.53894033e-002 -5.51218539e-003 -8.33711587e-003 -4.73038340e-003
      -1.73592269e-002 -3.30762286e-003 0. 0. 0. 1.10178231e-003
      -1.13972987e-003 -1.73567403e-002 -1.95020959e-002
      -2.00141240e-002 -6.91164471e-003 1.97639223e-004 2.60068802e-004
      2.65678827e-004 7.17948424e-004</_>
    <_>
      1.77238695e-002 2.69582514e-002 2.33659167e-002 1.90523528e-002
      1.55946915e-003 -3.57337319e-003 -3.57199600e-003 -2.51431298e-003
      5.63574024e-003 2.01083552e-002 4.08831835e-002 3.79564688e-002
      3.01354248e-002 -1.68433189e-002 -2.29874607e-002 -2.38865614e-002
      -2.10336056e-002 1.37791969e-003 1.55011024e-002 3.24056372e-002
      2.81039625e-002 3.23243253e-002 2.47779302e-002 -5.18398639e-003
      -5.53139951e-003 -5.64336823e-003 -5.44732437e-003
      -1.89776812e-003 1.89651325e-002 1.42370667e-002 1.51629839e-002
      -2.72380246e-004 -1.19475154e-002 -1.64273772e-002
      -1.30584100e-002 -1.97219998e-002 4.03427593e-002 5.15876971e-002
      5.15315235e-002 4.59117815e-002 -2.11887360e-002 -2.61526033e-002
      -3.03391255e-002 -2.47707237e-002 2.53850091e-002 3.59616168e-002
      2.75100507e-002 2.47335508e-002 1.54049201e-002 -2.78493129e-002
      -3.07291821e-002 -3.36691365e-002 -3.08317337e-002 9.57314670e-003
      -1.62607171e-002 7.66167883e-003 9.05221142e-003 -1.83563144e-003
      -1.89897679e-002 -1.45872738e-002 -2.08002143e-002
      -1.38112307e-002 -2.68721692e-002 -2.32420973e-002
      -5.17082540e-003 -9.51000955e-003 -6.33582845e-003
      -2.95867436e-002 -2.69140471e-002 -3.06945499e-002
      -2.82781683e-002 -3.18357237e-002 1.34196663e-002 1.94622874e-002
      1.67768057e-002 1.64289158e-002 5.97072393e-003 -2.06227452e-002
      -2.59113926e-002 -2.18282156e-002 7.12152291e-003 7.73329893e-003
      3.87613359e-003 2.53158808e-003 3.04896897e-003 2.29939930e-002
      -4.41661198e-003 -1.29292975e-003 1.22943509e-003 2.17532529e-003
      -1.22630885e-002 -3.79112642e-003 -6.42856630e-003
      -3.01015773e-003 -1.45706963e-002 -2.08311193e-002
      -2.19821017e-002 -2.18884330e-002 -2.14238390e-002
      -6.46154489e-003 -2.06160184e-004 -1.61016796e-004
      -1.47259387e-004 -7.62502244e-003 -1.49213858e-002
      -2.05763839e-002 -1.96483228e-002 -1.58791430e-002
      -4.91112471e-003 1.73906644e-003 9.16493940e-004 1.39847584e-003
      4.65274230e-003 -4.84359171e-003 3.19428486e-003 6.13378128e-004
      -2.55566020e-003 2.18785810e-003 7.15114875e-004 4.72268061e-004
      7.12430861e-004 1.64561775e-002 2.03283541e-002 2.39297301e-002
      2.71397028e-002 -2.84050067e-004 -1.71367228e-002 -2.27059118e-005
      -1.75576151e-005 -1.72507443e-005 -3.14214872e-003
      -1.13295689e-002 -1.56446379e-002 -1.41256582e-002
      -2.63805799e-002 -1.60431024e-002 0. 0. 0. -3.41765792e-003
      -1.23732090e-002 -1.37364538e-002 -9.80066322e-003
      -6.54485216e-003 2.74051167e-003 1.91505509e-003 1.39803521e-003
      2.38041254e-003 8.82213842e-003 1.11968024e-002 1.92274041e-002
      2.11335886e-002 -1.81710999e-003 7.58685824e-003 -1.18170201e-005
      0. 0. 7.33692758e-003 1.61009524e-002 2.31844019e-002
      2.40562782e-002 1.31142316e-002 -1.85705051e-002 0. 0. 0.
      -3.51322722e-003 -1.05205281e-002 -1.10238902e-002
      -5.31745935e-003 -1.03207724e-002 -8.44540074e-003
      -1.03398916e-005 0. 0. -2.48056924e-004 7.35149879e-005
      -2.76884506e-003 9.61269776e-004 -6.42567128e-003 5.04271174e-003
      -7.02161458e-004 -6.79751392e-004 -5.52661775e-004 2.31772172e-003
      6.40823459e-003 1.01996334e-002 1.07818302e-002 8.63973144e-003
      6.40158542e-003 -1.47978857e-003 -1.06667122e-003 -9.01246443e-004
      3.80378589e-003 6.29896997e-003 8.85699969e-003 9.53027699e-003
      7.10820081e-003 4.20090539e-004 -5.67561481e-004 -5.44938841e-004
      -4.54501598e-004 -3.91248288e-003 -5.70679875e-003
      -9.89385974e-003 -8.52678064e-003 2.68821395e-003 9.13217664e-003
      -1.22653868e-003 -9.12896940e-004 -8.30498000e-004
      -1.60257239e-003 -3.95819964e-003 -5.21907210e-003
      -1.59383740e-003 1.22935697e-002 1.51412026e-003 4.43343446e-002
      3.78774032e-002 4.39347737e-002 4.67558205e-002 -6.47864258e-003
      -9.74671170e-003 -8.11139960e-003 -2.73851752e-002
      -4.15432453e-002 1.40176457e-003 -4.50395187e-003 -1.24369632e-003
      4.22312086e-003 -8.84163287e-003 -1.47437071e-002 -1.24957897e-002
      -4.83215302e-002 -3.48630771e-002 1.56536866e-002 6.86431257e-003
      1.72675792e-002 2.98801512e-002 -1.09119145e-002 -1.37098376e-002
      -1.12293540e-002 -4.21766788e-002 -4.04905789e-002
      -4.14210511e-003 -6.20470848e-003 -4.13472811e-003
      -1.21237077e-002 -8.46615527e-003 -1.47415204e-002
      -1.05408048e-002 -4.02540043e-002 -3.87917385e-002 2.95809680e-003
      3.74425179e-003 8.81908287e-004 7.70954927e-003 -9.51399561e-003
      -1.24714682e-002 -1.15753599e-002 -4.92349863e-002
      -3.25542875e-002 -5.99399721e-003 -5.64724533e-003
      -6.39924826e-003 -1.04300156e-002 -5.16613526e-003
      -7.75117427e-003 -7.04822270e-003 -3.18852216e-002
      -3.41543965e-002 -6.52953051e-003 -5.96580328e-003
      -6.54949155e-003 -1.12378541e-002 -7.25766923e-003
      -1.05892522e-002 -9.29095503e-003 -3.45930792e-002
      -2.42085569e-002 -1.87787879e-003 -2.04134872e-003
      -1.90186838e-003 -6.77452423e-003 -6.52269414e-003
      -1.00129526e-002 -8.24590027e-003 -2.54622530e-002
      -4.09793891e-002 -1.19962515e-002 -1.26734385e-002
      -1.21020144e-002 -2.17093062e-002 -1.20781083e-002
      -1.72840916e-002 -1.45004336e-002 -3.99451889e-002
      -1.10600432e-002 -9.68007650e-003 -1.04051726e-002
      -1.15344236e-002 -2.07022764e-002 -1.14205433e-002
      -1.46932490e-002 -1.31427646e-002 -7.78868375e-003
      -1.93006676e-002 -7.71855516e-003 -1.00510493e-002
      -7.99414609e-003 -8.08692910e-003 -2.54368247e-003
      -4.63205576e-003 -3.13383574e-003 -1.97796449e-002
      -1.50665650e-002 -8.09016451e-003 -1.02930823e-002
      -9.42425523e-003 -1.16670448e-002 -8.91739270e-004
      -1.24017952e-003 -8.11458391e-004 -8.92610755e-003
      -7.09199067e-003 -1.38264438e-002 -1.47320591e-002
      -1.91801526e-002 -3.03862840e-002 -1.85455438e-002
      -1.79537088e-002 -1.80045404e-002 -3.50935245e-003
      -1.70272328e-002 0. 0. 0. -1.99349271e-003 -8.84886738e-003
      -1.37358801e-002 -1.24297636e-002 -2.77375020e-002
      -8.84965342e-003 -9.36906878e-003 -1.05881272e-002
      -1.33852409e-002 -2.14681327e-002 -1.91284367e-003
      -2.30934145e-003 -1.63432246e-003 -2.58312584e-003
      -4.24032733e-005 0. 0. 0. -6.39881000e-006 -2.43021168e-005
      -4.61222298e-005 -3.70385678e-005 -9.94094371e-005
      -3.37483697e-002 0. 0. 0. -9.01154301e-004 -8.66054557e-003
      -1.00078294e-002 -9.09621548e-003 -3.91851328e-002
      -3.77610628e-003 0. 0. 0. 1.92247657e-003 -4.10430972e-003
      1.63320918e-003 -2.62092496e-003 -1.20836904e-003 -1.69302599e-004
      0. 0. 0. -2.03121999e-005 -9.76111114e-005 -1.78576316e-004
      -1.40948556e-004 -3.55766679e-004 -1.41439692e-003 0. 0. 0.
      -1.15701790e-004 -5.83444780e-004 -1.22500898e-003
      -7.68747937e-004 -2.34853476e-003 -4.04341519e-003 0. 0. 0.
      -1.44197419e-003 -6.90339226e-003 -9.81121324e-003
      -3.47403204e-003 -2.91662128e-003 3.60830314e-003 1.19439594e-003
      1.02940190e-003 4.15788003e-004 -3.69256875e-003 -1.75847039e-002
      -1.20580699e-002 -1.09346900e-002 4.56100563e-003 -2.55599269e-003
      0. 0. 0. -1.82694770e-004 -1.17605343e-003 -1.79831556e-003
      -1.67002401e-003 -3.41263460e-003 -6.47264952e-003 4.75754176e-004
      4.91067593e-004 2.20734015e-004 -9.80818644e-004 -6.47742255e-003
      -8.22600909e-003 -7.15423422e-003 -1.37785794e-002
      -6.94066845e-003 2.80612316e-002 1.80191603e-002 3.11495196e-002
      3.06207780e-002 -2.48601343e-002 -2.79013533e-002 -2.59771124e-002
      -2.61053294e-002 -4.11196984e-002 -5.34092216e-003
      -8.48634448e-003 -7.63975736e-003 -1.48368720e-002
      -2.14637071e-002 -2.33986378e-002 -2.27559805e-002
      -4.21964191e-002 -2.80195270e-002 -9.80965514e-003
      -1.06075080e-002 -7.31216045e-003 4.53339219e-002 4.87759756e-003
      -4.02893266e-003 -2.02862197e-003 -2.34307870e-002
      -4.14510220e-002 -1.15761636e-002 -1.51322922e-002
      -1.30385207e-002 -1.01066586e-002 -1.21457856e-002
      -1.29057253e-002 -1.49768470e-002 -3.97579409e-002
      -3.34866196e-002 -1.06468480e-002 -1.54833943e-002
      -1.58508644e-002 -3.09843682e-002 -2.77641397e-002
      -3.15057486e-002 -2.62185633e-002 -3.41436155e-002
      -1.17567042e-002 -1.80154562e-003 -2.37023761e-003
      -1.01925340e-003 -4.27868916e-003 -7.36946939e-003
      -1.11000892e-002 -9.33225080e-003 -1.81826707e-002
      -3.86896729e-002 -1.80328283e-002 -2.31098346e-002
      -2.01729890e-002 -3.81324813e-002 -2.74583139e-002
      -3.12553309e-002 -2.71727443e-002 -3.78966145e-002
      -2.07694881e-002 -5.66670904e-003 -5.91442874e-003
      -5.50891692e-003 -2.25166082e-002 -1.78239048e-002
      -2.12283842e-002 -1.84168462e-002 -2.42723282e-002
      -1.46958940e-002 -3.74215050e-003 -3.26299039e-003
      -3.24175903e-003 -6.67130947e-003 -8.66733026e-003
      -1.07914591e-002 -9.77298338e-003 -1.83180384e-002
      -2.73271999e-003 -4.87094279e-004 -1.56982424e-004
      -1.18726486e-004 -1.59252362e-004 -1.42205417e-005
      -8.70060012e-006 -5.11680946e-006 -2.09350581e-003
      -1.08604478e-002 -9.65178199e-003 -1.02270199e-002
      -1.08679794e-002 -2.74999980e-002 -2.60303058e-002
      -2.78984271e-002 -2.56565120e-002 -1.67166237e-002
      -1.39888073e-006 -3.02417402e-006 -3.84739815e-006
      -9.53178096e-006 -8.11050122e-005 -8.29472447e-006
      -3.27086650e-006 -3.65486301e-007 -1.65343238e-006
      -3.29386373e-003 0. 0. 0. -1.21620372e-002 0. 0. 0.
      -3.29386373e-003 0. 0. 0. 0. 0. 0. 0. 0. 0. 0. 0. 0. 0. 0. 0. 0.
      0. 0. 0. 0. 0. 0. 0. 0. 0. 0. 0. -2.45464982e-008 0. 0. 0. 0. 0.
      0. 0. -2.45464982e-008 -2.63775582e-004 0. 0. 0. -2.67787218e-005
      -1.38978605e-004 -2.86913943e-004 -2.40887763e-004
      -3.88709741e-004 0. 0. 0. 0. 0. 0. 0. 0. 0. 0. 0. 0. 0. 0. 0. 0.
      0. 0. -9.74591676e-005 0. 0. 0. -3.38243699e-005 -1.11135443e-004
      -2.71299534e-004 -2.27374971e-004 -2.27246011e-004
      -4.75839432e-003 0. 0. 0. -4.44781181e-004 -2.74536619e-003
      -4.75839432e-003 -4.75839432e-003 -4.75839432e-003
      -1.54117210e-004 -1.03499529e-004 -1.27809268e-004
      -4.51818632e-005 -1.20102901e-004 -2.02793899e-007
      -4.23176033e-007 -3.35154056e-007 -6.18145204e-005
      -2.90176645e-002 -2.70108413e-002 -2.32607517e-002
      -2.50932276e-002 -6.93694409e-003 -7.63298704e-006
      -1.95415887e-005 -1.95193861e-005 -2.45277658e-002
      -3.09231859e-002 -1.05342059e-003 -6.97045820e-003 4.15086700e-003
      4.32101525e-002 8.94055236e-003 3.94036341e-003 6.41288003e-003
      -3.32130753e-002 -5.46990968e-002 -1.30716739e-002
      -1.68728735e-002 -1.26262316e-002 -5.55390352e-003
      -2.84702587e-003 -4.34864964e-003 -4.49632108e-003
      -5.46990968e-002 -2.72999629e-002 -1.50193637e-002
      -1.83648393e-002 -1.51428729e-002 2.43764557e-002 2.37949248e-002
      2.00094748e-002 2.15877015e-002 -1.30100213e-002 -5.36629334e-002
      -1.76396873e-002 -2.13956144e-002 -1.67457648e-002
      -8.22080951e-003 -1.31884171e-003 -1.21064135e-003
      -7.94640393e-004 -5.30644767e-002 -5.37805036e-002
      -2.19137613e-002 -2.49491483e-002 -2.03310233e-002
      -2.47228574e-002 -1.25109432e-002 -1.38148637e-002
      -1.34997070e-002 -5.02102599e-002 -2.48011239e-002
      -1.66101921e-002 -1.55863492e-002 -1.55694745e-002
      -2.68012118e-002 -7.39859883e-003 -8.47585965e-003
      -7.91974925e-003 -2.46519260e-002 -5.25207408e-002
      -2.41069477e-002 -2.53626201e-002 -2.27579065e-002
      -1.82361268e-002 -1.27984583e-002 -1.33204823e-002
      -1.23178894e-002 -5.22062629e-002 -2.78362203e-002
      -1.09676588e-002 -1.31764570e-002 -1.00022964e-002
      -1.77522860e-002 -6.14494644e-003 -6.65231049e-003
      -5.95516199e-003 -2.31456868e-002 -2.73201093e-002
      -2.28361059e-002 -1.75021738e-002 -2.52247415e-002
      -3.63176800e-002 -8.27864464e-003 -7.71068363e-003
      -8.31396226e-003 -1.40616680e-002 -2.66349083e-003
      -6.47911336e-004 -2.39824803e-004 -3.71586415e-004
      -1.16387717e-004 -2.14914489e-005 -2.61462483e-005
      -3.52224379e-005 -2.15997826e-003 -3.81417647e-002
      -1.69027578e-002 -1.89177785e-002 -1.73597336e-002
      -1.42597230e-002 -7.62726180e-003 -9.57313087e-003
      -7.19344895e-003 -2.34640222e-002 -3.34143564e-002
      -2.17616837e-002 -2.16258224e-002 -2.16236115e-002
      -7.46628037e-003 -5.53941121e-003 -7.47312838e-003
      -5.77326491e-003 -3.65197286e-002 -3.45920050e-003
      -3.62200022e-004 -1.13644375e-004 -1.76294314e-004
      -6.65870321e-005 -1.75783891e-004 -2.21171373e-004
      -2.13971536e-004 -3.56173632e-003 -1.08897046e-003
      -1.29848695e-005 -1.23122493e-006 -1.88079707e-006
      -5.22867085e-005 -1.71961248e-004 -2.08654194e-004
      -1.86396195e-004 -1.46213057e-003 -2.58544385e-002
      -8.51782784e-003 -9.41187795e-003 -7.91822094e-003
      -1.16091268e-002 -2.38015056e-002 -2.99786218e-002
      -2.55528986e-002 -3.52682136e-002 -1.60700511e-002
      -1.70906511e-004 -6.00783351e-005 -1.23472695e-004
      -1.05241826e-002 -1.67752970e-002 -1.88853778e-002
      -1.53438337e-002 -2.05667149e-002 -2.92342720e-005 0. 0. 0.
      -7.31457258e-005 -7.70408806e-005 -9.91634952e-005
      -4.97198234e-005 -4.15237264e-005 -1.34186594e-005 0.
      -6.72708265e-005 -2.77358436e-006 -1.01658654e-004 0. 0. 0.
      -1.34186594e-005 -1.75126304e-003 0. 0. 0. -1.83425453e-002
      -2.16630995e-002 -2.36236248e-002 -2.13697366e-002
      -4.48589493e-003 -1.78093265e-003 -1.69859007e-002
      -2.15498079e-002 -2.08800286e-002 -1.75211783e-002 0. 0. 0.
      -8.59367603e-004 -5.17715700e-004 -3.32170865e-003
      -4.59138490e-003 -3.95595981e-003 -1.76394125e-003 0. 0. 0.
      -1.67307400e-004 -9.78450663e-003 -1.43639324e-002
      -1.47813885e-002 -1.53533285e-002 -7.28575559e-003 0. 0. 0.
      -3.40501312e-003 -1.56029686e-003 -1.29416240e-002
      -1.56730004e-002 -1.53649803e-002 -8.25890619e-003 0. 0. 0.
      -7.37809693e-004 8.28722492e-003 -1.21137069e-003 -5.49283344e-003
      -4.04677307e-003 -2.84734648e-003 0. 0. 0. 9.73911840e-004
      -4.35886905e-002 -1.01837656e-002 -1.36621408e-002
      -1.02245538e-002 3.22395936e-002 2.46445369e-002 1.77021176e-002
      2.24551000e-002 -2.99041383e-002 -5.35371862e-002 -1.66901685e-002
      -1.71689056e-002 -1.58770140e-002 -5.62489172e-003
      -2.00229953e-003 -3.08538950e-003 -1.36893860e-003
      -4.47539575e-002 -1.30650839e-002 -1.17716631e-002
      -1.53342132e-002 -1.25748022e-002 4.47979718e-002 5.48354760e-002
      5.41801862e-002 5.68738170e-002 1.45593453e-002 -3.92498150e-002
      -2.54421141e-002 -2.76181083e-002 -2.40351111e-002
      -3.39910388e-003 3.67296976e-003 2.51165009e-003 6.74007135e-003
      -2.73270849e-002 -4.33807820e-002 -1.88718662e-002
      -2.08571535e-002 -1.78668089e-002 -1.39020551e-002
      -1.28702037e-002 -1.45450635e-002 -1.42457997e-002
      -4.26295213e-002 -3.36948410e-002 -1.30340047e-002
      -1.60346776e-002 -1.24684898e-002 -8.49696063e-003
      -2.58036354e-003 -2.73379590e-003 -2.49563996e-003
      -2.72206832e-002 -3.42493169e-002 -3.02142985e-002
      -3.25417630e-002 -2.92839594e-002 8.62078927e-003 1.38505884e-002
      1.46277146e-002 1.48725342e-002 -1.74505692e-002 -2.23515797e-002
      -1.84884463e-002 -1.88156385e-002 -1.81676503e-002
      -1.21282069e-002 -2.05202005e-003 -1.12990639e-003
      -1.71183306e-003 -2.14114059e-002 -3.22213396e-002
      -1.75997093e-002 -1.89595371e-002 -1.74419004e-002
      -7.99757801e-003 -3.41367675e-003 -5.38105564e-003
      -3.85292713e-003 -2.85275728e-002 -2.84918249e-002
      -1.50959194e-002 -1.57530494e-002 -1.54842651e-002
      -1.36275394e-002 -8.52636620e-003 -9.28818900e-003
      -9.08634346e-003 -2.90154610e-002 -2.66687255e-002
      -1.49227288e-002 -1.65950600e-002 -1.36099998e-002
      -6.65475521e-003 -5.36282139e-004 -1.03943946e-003
      -8.25825322e-004 -1.91156752e-002 -1.61188841e-002
      -7.58017134e-003 -8.98401719e-003 -8.67196359e-003
      -1.18774930e-002 -3.77724087e-003 -7.05309585e-003
      -5.34170959e-003 -1.38718681e-002 -1.84379946e-002
      -3.37149831e-003 -4.42665815e-003 -3.67898587e-003
      -3.28103006e-002 -1.65899321e-002 -2.29379367e-002
      -1.82159320e-002 -1.86894722e-002 -3.49108363e-003
      -9.73951537e-004 -9.44532105e-004 -1.47605862e-003
      -2.35841423e-002 -1.28595671e-002 -1.43641131e-002
      -1.12451417e-002 -5.00792870e-003 -1.22867152e-002
      -1.34341847e-002 -1.68448649e-002 -1.86521467e-002
      -3.94795761e-002 -9.72199813e-003 -1.32977460e-002
      -1.07477931e-002 -1.44027537e-002 1.33181447e-002 3.03979148e-003
      -2.84477021e-004 -8.84565897e-003 -2.16206778e-002
      -3.49129923e-003 -3.89277237e-003 -3.21433274e-003 6.77757571e-003
      -2.45936972e-004 -4.35714202e-004 -4.67196049e-004
      -6.86019659e-004 -1.84575114e-002 -3.33771226e-003
      -3.15462891e-003 -2.59260740e-003 -2.96381244e-004
      -2.40886561e-003 -1.25734769e-002 -1.93446204e-002
      -1.59975905e-002 -8.94904789e-003 0. 0. 0. -6.79470424e-004
      -3.68735148e-003 -6.11183932e-003 -1.43549200e-002
      -1.13554467e-002 -1.91322304e-002 -6.26172288e-004
      -4.21784789e-004 -4.02996549e-004 -7.83498981e-004 1.13984561e-002
      6.70490554e-003 6.30755443e-003 3.23605165e-003 7.01539498e-003 0.
      0. 0. 6.13637827e-003 -1.44701311e-003 -1.37164639e-002
      -1.69843379e-002 -1.47293266e-002 -6.88023027e-003 0. 0. 0.
      -1.33895152e-003 1.28464429e-002 1.09675166e-003 -2.90065003e-003
      -4.44844319e-003 -2.00124900e-003 0. 0. 0. 5.23072202e-003
      3.10921087e-003 -4.93163709e-004 -5.05184708e-003 -6.48309151e-003
      4.94174485e-004 0. 0. 0. 2.39932653e-003 7.20993057e-003
      1.33752059e-002 1.05741732e-002 6.86441222e-003 1.19573772e-002 0.
      0. 0. 6.41288562e-003 -1.84105150e-002 -1.69606041e-002
      -1.75018478e-002 -1.48491580e-002 1.97550151e-002 2.40945630e-002
      2.39906646e-002 2.94160862e-002 -2.81295902e-003 -2.18246020e-002
      -2.41327118e-002 -2.42656898e-002 -2.14891974e-002 1.42984595e-002
      1.60778854e-002 1.58564430e-002 1.92935970e-002 -7.70758744e-003
      -1.02895396e-002 -7.84002431e-003 -8.56036507e-003
      -6.51956955e-003 1.84168164e-002 1.91302989e-002 1.87384933e-002
